
\data\
ngram 1=27
ngram 2=517
ngram 3=5301
ngram 4=27763
ngram 5=77042

\1-grams:
-0.7266812	</s>
-99	<s>	-4.792409
-99	<unk>
-0.9507857	a	-0.669435
-1.891393	b	-3.664904
-2.161882	c	-3.923425
-1.673327	d	-2.323901
-1.253638	e	-0.6671615
-2.939283	f	-4.893321
-2.051209	g	0.03760529
-3.187426	h	-4.239397
-0.9660472	i	-0.671308
-1.825559	j	-2.323692
-1.436668	k	0.004099846
-1.624037	l	-0.6507125
-1.609358	m	-0.006338596
-1.366384	n	-0.6696095
-1.532559	o	0.000494957
-1.632447	p	-0.6693015
-1.265938	r	-0.666285
-1.162807	s	-0.6642261
-1.218093	t	-0.003782749
-1.21934	u	-0.5572076
-1.499136	v	-0.66468
-4.957186	w	-3.300241
-5.510315	x	-2.805725
-1.860884	z	-2.326601

\2-grams:
-1.286323	<s> a	-4.763411
-1.398618	<s> b	-4.228809
-1.730373	<s> c	-4.234975
-1.584907	<s> d	-4.844695
-1.794718	<s> e	-4.505898
-2.531471	<s> f	-3.217738
-1.764343	<s> g	-4.417949
-2.754149	<s> h	-3.925992
-0.9723408	<s> i	-4.863928
-1.398464	<s> j	-4.018283
-1.110352	<s> k	-4.644595
-1.34979	<s> l	-4.711944
-1.622092	<s> m	-4.612451
-1.064982	<s> n	-5.094848
-2.426742	<s> o	-4.865654
-1.013115	<s> p	-4.104511
-1.808564	<s> r	-5.153225
-1.289684	<s> s	-5.198204
-1.024295	<s> t	-4.962431
-1.12789	<s> u	-5.12316
-0.9918234	<s> v	-4.583771
-4.610131	<s> w	-2.834906
-2.075156	<s> z	-5.025158
-0.7552509	a </s>
-2.59614	a a	-4.304132
-1.76934	a b	-0.6710615
-2.550519	a c	-3.329119
-1.248281	a d	0.0404706
-2.988665	a e	-4.286406
-3.224939	a f	-0.8707511
-1.798086	a g	-2.321935
-3.69946	a h	-2.621678
-0.9518825	a i	-2.165887
-2.03301	a j	-3.836513
-1.520103	a k	-2.650006
-1.28861	a l	-2.178162
-1.295966	a m	-3.560555
-1.583645	a n	-1.80776
-3.827076	a o	-2.714714
-1.881766	a p	-1.022492
-0.8795825	a r	0.02263165
-1.05584	a s	-0.7810922
-1.151227	a t	-0.1340284
-1.042568	a u	-2.167347
-1.342509	a v	-1.824648
-2.066274	a z	-3.542139
-1.991004	b </s>
-0.7129118	b a	-3.117312
-5.795568	b b	-0.6420093
-5.171924	b c	-0.9606788
-3.172319	b d	-3.071432
-0.4920053	b e	-4.473233
-4.073438	b g	-2.189276
-5.514347	b h	-0.8853852
-0.6031782	b i	-0.7602081
-2.257029	b j	-2.215147
-1.990237	b k	-4.046954
-1.894201	b l	-3.910325
-5.795568	b m	-0.7886386
-2.570605	b n	-3.525509
-1.527544	b o	-2.702221
-3.955638	b p	-2.031787
-1.190326	b r	-5.074608
-1.564864	b s	-3.800709
-2.741292	b t	-2.423931
-1.160504	b u	-3.749832
-3.679291	b v	-2.114699
-1.298163	c </s>
-0.9791676	c a	-4.673
-3.35232	c b	-2.580383
-4.641798	c c	-0.9881123
-2.653908	c d	-3.291182
-0.7963418	c e	-4.518616
-4.812494	c f	-1.226663
-4.021142	c g	-1.955396
-4.368797	c h	-1.159849
-0.2197883	c i	-2.108651
-3.701033	c k	-1.563531
-3.673315	c l	-2.196587
-2.888598	c m	-2.814299
-4.48043	c n	-1.658135
-1.653808	c o	-3.600486
-3.554549	c p	-1.820494
-3.913444	c r	-2.278841
-2.464406	c s	-3.202649
-3.136648	c t	-2.815477
-1.294907	c u	-3.986515
-4.562617	c v	-1.476586
-0.6940452	d </s>
-0.6738408	d a	-3.099815
-4.38606	d b	-1.432741
-5.016409	d c	-0.88725
-3.823928	d d	-2.539401
-1.225037	d e	-3.234038
-5.119629	d f	-1.39609
-3.540403	d g	-2.696291
-0.8500941	d i	-0.6286693
-4.813334	d j	-1.081638
-3.775284	d k	-2.617941
-3.504783	d l	-2.750042
-3.199658	d m	-2.970975
-2.460803	d n	-3.859074
-1.071453	d o	-0.939693
-3.97883	d p	-1.775548
-1.270824	d r	-4.978935
-1.78232	d s	-2.889523
-4.78793	d t	-1.837276
-0.9553702	d u	-2.744157
-3.142128	d v	-2.701086
-0.9456562	d z	-3.894906
-1.033849	e </s>
-2.307158	e a	-4.091506
-2.037687	e b	-2.60602
-1.843151	e c	-1.013307
-1.512327	e d	-0.6060481
-2.152236	e e	-3.986341
-2.378118	e f	-1.527637
-1.908146	e g	-3.052575
-3.056409	e h	-2.515912
-1.129889	e i	-2.955759
-1.886555	e j	-3.907334
-1.078894	e k	-1.321891
-1.368128	e l	0.0004162788
-1.030117	e m	-1.345095
-0.9995058	e n	0.05915165
-2.519999	e o	-0.8362539
-2.048274	e p	-0.8540297
-1.347369	e r	0.01164293
-0.9150047	e s	-0.7313261
-0.8687943	e t	-1.261991
-3.460313	e u	-0.3907001
-1.120891	e v	-2.664399
-1.565114	e z	0.2198958
-0.6400192	f a	-4.122188
-0.678791	f e	-4.014291
-4.144238	f g	-1.07251
-0.6869469	f i	-2.733752
-3.621359	f j	-1.789926
-4.864397	f k	-0.743535
-1.640317	f l	-3.348344
-4.086246	f m	-1.375733
-4.563367	f n	-0.9152666
-0.7155398	f o	-3.097039
-1.36344	f r	-3.864392
-1.938183	f s	-3.211083
-1.678996	f t	-3.330486
-1.192808	f u	-3.136458
-4.563367	f v	-0.8153653
-1.247202	g </s>
-0.3345495	g a	-3.706816
-3.452527	g b	-2.638428
-4.682432	g c	-0.8031383
-3.029836	g d	-2.842756
-2.302375	g e	-3.078034
-5.54835	g f	-0.9361037
-5.15041	g g	-0.8762999
-4.863169	g h	-1.504672
-1.122177	g i	-4.265821
-4.400288	g j	-1.884905
-4.309207	g k	-1.671984
-1.600786	g l	-4.023727
-3.004088	g m	-2.918117
-2.536767	g n	-3.364208
-1.299075	g o	-2.595885
-3.425622	g p	-1.918788
-1.023638	g r	-5.057064
-1.27144	g s	-3.679203
-1.426355	g t	-3.679334
-0.8961568	g u	-3.680449
-2.373074	g v	-3.092178
-5.032311	g w	-1.264044
-2.670853	g z	-3.626261
-1.78263	h </s>
-0.5203101	h a	-3.693444
-4.616255	h d	-0.7478206
-1.462288	h e	-3.264715
-0.640054	h i	-3.436227
-2.565102	h l	-2.531423
-2.917285	h m	-1.806107
-1.253019	h n	-3.851182
-0.6731811	h o	-2.953984
-1.775992	h r	-3.386719
-1.652349	h s	-3.276395
-2.476376	h t	-2.312943
-0.9934711	h u	-3.434808
-2.935014	h v	-1.952147
-2.958244	h z	-2.087863
-0.6670397	i </s>
-2.94675	i a	-4.044221
-2.406092	i b	-3.468277
-2.098456	i c	-2.632982
-1.699288	i d	-0.5942006
-0.6498428	i e	-3.216772
-3.329844	i f	-0.8767161
-2.333488	i g	-3.865045
-3.35723	i h	-3.062113
-6.117473	i i	-1.16563
-1.51456	i j	-0.9266939
-1.160434	i k	-1.201206
-1.681619	i l	-1.179696
-1.945749	i m	-2.985382
-1.559315	i n	-2.143486
-2.467614	i o	-3.652682
-2.526106	i p	-3.227802
-0.7790651	i r	-2.974755
-0.8945408	i s	-2.239711
-1.551341	i t	-2.636443
-4.863351	i u	-2.2478
-2.486223	i v	-3.72085
-1.505321	i z	-0.3847971
-1.59819	j </s>
-0.2288074	j a	-4.15297
-3.32757	j b	-2.946569
-5.075031	j c	-1.117465
-4.747672	j d	-1.601049
-1.477839	j e	-4.521024
-5.978121	j f	-0.6988639
-4.809329	j g	-1.424002
-1.307701	j i	-4.950762
-5.978121	j j	-0.7374998
-4.274829	j k	-1.830399
-4.774001	j l	-1.437795
-3.917423	j m	-2.540276
-3.010105	j n	-3.531217
-0.8803983	j o	-4.020924
-5.27915	j p	-1.398936
-4.794851	j r	-1.633876
-2.341207	j s	-3.784196
-5.500999	j t	-1.090223
-0.7860126	j u	-3.926123
-3.855086	j v	-2.046629
-5.103059	j z	-1.360042
-1.239275	k </s>
-0.4054803	k a	-2.507039
-4.453197	k b	-1.846876
-2.574305	k c	-3.516664
-3.126899	k d	-3.43235
-2.577642	k e	-3.760348
-4.973436	k f	-1.926848
-3.482499	k g	-3.073126
-4.520365	k h	-1.797099
-1.449692	k i	-3.227949
-6.250293	k j	-0.4231387
-3.001383	k k	-3.490616
-1.795975	k l	-4.371291
-2.475209	k m	-3.321564
-2.555386	k n	-3.95785
-0.9224353	k o	-1.755672
-2.866535	k p	-3.511734
-1.320082	k r	-5.076718
-1.093852	k s	-2.265661
-1.101899	k t	-3.384643
-0.8125401	k u	-3.427673
-2.765794	k v	-3.46536
-4.479113	k w	-2.41158
-5.626648	k z	-1.271281
-2.641352	l </s>
-0.5033375	l a	-3.047041
-1.909593	l b	-3.431906
-2.668061	l c	-1.874985
-1.487572	l d	-4.469318
-1.490987	l e	-3.190068
-2.427941	l f	-2.999362
-1.521407	l g	-4.151601
-3.292448	l h	-2.931117
-0.6339028	l i	-0.694098
-1.967449	l j	-3.333228
-1.818208	l k	-2.357249
-2.447933	l l	-3.377813
-2.442649	l m	-4.176229
-1.794077	l n	-4.478698
-1.25991	l o	-2.233473
-2.047768	l p	-3.128695
-4.303136	l r	-2.362569
-0.8609538	l s	-2.149769
-1.457244	l t	-2.6279
-1.470473	l u	-1.548865
-1.800551	l v	-4.00999
-2.610767	l z	-3.859861
-0.498463	m </s>
-0.7043592	m a	-2.920699
-2.416985	m b	-2.608621
-5.133624	m c	-0.8938583
-2.996008	m d	-3.25829
-1.302352	m e	-4.503114
-3.379076	m f	-1.845639
-3.493834	m g	-2.606911
-5.088811	m h	-1.611792
-0.9208431	m i	-3.284036
-1.907612	m j	-2.696228
-3.635913	m k	-2.591326
-3.279714	m l	-3.078295
-2.415393	m m	-2.986302
-2.019782	m n	-4.363975
-1.558436	m o	-2.048097
-2.16441	m p	-3.119606
-4.305019	m r	-2.398834
-0.9105125	m s	-3.883842
-1.915682	m t	-3.289134
-0.9479722	m u	-3.14124
-3.219234	m v	-2.856902
-4.67253	m w	-2.048727
-3.617117	m z	-2.95407
-0.5858425	n </s>
-0.8219284	n a	-2.948857
-3.959812	n b	-2.085249
-2.252214	n c	-2.513792
-1.853816	n d	-2.367774
-0.8454015	n e	-2.437705
-3.10516	n f	-2.01321
-2.041873	n g	-3.796693
-4.099836	n h	-1.989952
-1.06633	n i	-0.7356415
-4.025675	n j	-1.954621
-2.005513	n k	-3.837616
-3.591577	n l	-3.111497
-4.506601	n m	-2.257644
-3.207677	n n	-3.365721
-0.8376307	n o	-1.708268
-3.914851	n p	-1.916269
-2.779284	n r	-4.066316
-1.373827	n s	-0.6860557
-1.314911	n t	-4.766519
-1.090145	n u	-4.420574
-2.873429	n v	-3.250532
-3.592818	n z	-3.150791
-0.457546	o </s>
-3.496604	o a	-2.626708
-2.036793	o b	-2.978142
-2.259244	o c	-3.500976
-1.218519	o d	-2.112376
-3.515627	o e	-2.662447
-2.596489	o f	-0.9440055
-1.947838	o g	-2.342371
-2.847138	o h	-2.992469
-2.729323	o i	-2.550362
-1.333957	o j	-3.700619
-1.575808	o k	-0.9622769
-1.414487	o l	-2.817248
-1.382675	o m	-2.572418
-1.352545	o n	-4.684998
-3.588299	o o	-3.406874
-1.702365	o p	-0.9751344
-1.410554	o r	-4.862939
-0.9799709	o s	-2.06259
-0.7444513	o t	-3.065697
-4.507693	o u	-2.303355
-2.162954	o v	-3.743273
-3.804253	o w	-2.834906
-1.98629	o z	-3.851864
-1.907418	p </s>
-0.2953218	p a	-2.381438
-3.192709	p b	-2.527564
-2.811728	p c	-3.232515
-2.976856	p d	-3.146767
-1.650536	p e	-4.266715
-5.268142	p f	-1.265588
-2.509514	p g	-3.720326
-4.321506	p h	-2.320653
-0.7525178	p i	-3.328163
-2.400214	p j	-2.261047
-2.365442	p k	-3.667331
-1.87421	p l	-4.154046
-2.882368	p m	-3.583229
-2.445035	p n	-3.874571
-1.423863	p o	-2.156804
-2.770262	p p	-2.697602
-0.8453311	p r	-5.202681
-1.805164	p s	-2.122624
-2.050995	p t	-3.144802
-1.414094	p u	-3.290673
-2.656684	p v	-3.39624
-2.837684	p z	-3.69586
-0.3472134	r </s>
-0.9010087	r a	-2.861733
-1.747578	r b	-3.808859
-3.272216	r c	-1.010975
-2.236451	r d	-2.305137
-1.178298	r e	-4.135441
-3.3631	r f	-2.14838
-2.090739	r g	-2.547899
-2.610332	r h	-3.610896
-0.9435871	r i	-4.719535
-3.223611	r j	-3.243762
-2.079928	r k	-3.893689
-3.336549	r l	-3.093423
-1.905337	r m	-3.390464
-2.435539	r n	-4.219396
-1.266365	r o	-1.677346
-2.269989	r p	-0.6743631
-3.911401	r r	-2.158803
-1.371946	r s	-1.746573
-1.821913	r t	-1.787251
-1.20149	r u	-1.809829
-2.561036	r v	-3.612071
-2.948211	r z	-3.911986
-0.3126759	s </s>
-0.994291	s a	0.05411625
-3.841015	s b	-2.256744
-4.28869	s c	-2.076137
-3.60027	s d	-2.994407
-1.739589	s e	-3.544251
-3.818705	s f	-2.42062
-3.584635	s g	-3.157307
-4.8036	s h	-1.788115
-1.101547	s i	-2.958439
-5.189854	s j	-0.5533054
-1.368783	s k	-4.620427
-1.990781	s l	-4.542218
-1.64182	s m	-4.965395
-2.230834	s n	-4.244476
-1.735869	s o	-2.602413
-1.872216	s p	-4.16349
-3.278249	s r	-3.758713
-1.567037	s s	-3.87727
-0.9262123	s t	-0.1575637
-1.310829	s u	-3.601216
-2.289589	s v	-4.232062
-4.691483	s z	-2.329227
-0.7075073	t </s>
-0.6895408	t a	-2.925959
-2.111775	t b	-3.763006
-2.846529	t c	-3.612045
-2.667753	t d	-3.869818
-1.202506	t e	-3.373611
-4.277556	t f	-2.365328
-2.925433	t g	-3.62569
-5.807436	t h	-1.319793
-0.6888787	t i	-0.7255497
-3.236552	t j	-2.796539
-2.842253	t k	-3.518365
-2.315811	t l	-4.076826
-2.970426	t m	-3.784857
-2.322264	t n	-4.399333
-1.119926	t o	-1.668589
-3.121694	t p	-2.857381
-1.369607	t r	-5.198508
-1.185911	t s	-1.654655
-2.506469	t t	-4.144942
-0.9847231	t u	-3.570129
-1.818464	t v	-4.617776
-6.858588	t w	-0.4398196
-3.343045	t z	-3.60476
-0.3892079	u </s>
-3.672782	u a	-3.20463
-2.565244	u b	-2.702364
-1.988138	u c	-2.946125
-1.477368	u d	-2.16683
-4.260572	u e	-2.867329
-4.422224	u f	-2.215571
-2.080569	u g	-3.861272
-4.22403	u h	-2.620467
-2.886674	u i	-3.691396
-2.619361	u j	-1.934418
-1.730701	u k	-3.975334
-1.821759	u l	-2.805062
-1.207115	u m	-0.9027605
-0.7029311	u n	-1.020338
-4.447619	u o	-2.669944
-2.269893	u p	-2.776948
-1.179431	u r	-2.797309
-1.209475	u s	0.01284313
-1.330108	u t	-3.562198
-4.683972	u u	-2.227907
-2.476392	u v	-3.737846
-4.290977	u x	0
-1.253377	u z	-0.3861909
-0.978667	v </s>
-0.562743	v a	-4.648472
-4.65133	v b	-2.242188
-4.264139	v c	-2.062591
-3.539061	v d	-2.927811
-1.144606	v e	-3.466496
-6.187825	v f	-0.7059678
-4.584384	v g	-2.011736
-4.845905	v h	-1.960854
-0.3332547	v i	-2.18972
-2.758772	v j	-2.689095
-3.753093	v k	-2.627518
-3.071484	v l	-3.489925
-4.869177	v m	-1.930596
-3.689119	v n	-3.100542
-2.120555	v o	-3.409028
-3.332109	v p	-2.955378
-3.220772	v r	-3.414041
-1.932377	v s	-4.129677
-4.093022	v t	-2.442231
-1.212118	v u	-4.934336
-4.831056	v v	-1.478623
-3.754621	v z	-2.724004
-3.448706	w a
-0.7821884	w h	-2.660229
-0.3797787	w i	-3.057149
-0.3797787	w s	-2.77961
-0.0005521863	x </s>
-0.4801426	z </s>
-1.303696	z a	-3.383871
-1.831063	z b	-3.482947
-2.176588	z c	-3.280679
-1.542673	z d	-4.357984
-1.119733	z e	-3.682066
-5.266102	z f	-0.7016639
-2.071296	z g	-3.678811
-0.675213	z i	-3.452715
-2.822469	z j	-2.780018
-2.249311	z k	-3.718756
-1.472382	z l	-4.363295
-1.567475	z m	-4.545467
-1.844048	z n	-4.247579
-1.490362	z o	-2.910722
-1.968238	z p	-3.367742
-1.791365	z r	-4.514579
-1.301443	z s	-3.695852
-1.621534	z t	-3.438834
-1.653742	z u	-3.493492
-1.481215	z v	-4.342682
-2.52251	z z	-3.78258

\3-grams:
-1.697492	<s> a b	-3.130712
-2.088764	<s> a c	-1.694105
-2.471363	<s> a d	-3.73562
-3.73856	<s> a e	-2.637587
-4.032902	<s> a f	-1.881963
-2.155872	<s> a g	-3.719555
-5.050314	<s> a h	-1.297902
-1.063541	<s> a i	-3.665067
-1.715605	<s> a k	-2.115963
-1.557097	<s> a l	-1.860886
-1.83705	<s> a m	-4.318662
-1.845935	<s> a n	-3.507388
-5.188617	<s> a o	-1.226751
-1.075863	<s> a p	-0.04236889
-0.3336938	<s> a r	-3.607168
-2.003659	<s> a s	-4.28411
-0.7679961	<s> a t	-4.460007
-1.170598	<s> a u	-2.574631
-2.533599	<s> a v	-3.728318
-3.630059	<s> a z	-2.641815
-0.08627809	a a </s>
-2.31724	a a d	-2.499863
-3.603547	a a g	-1.250072
-2.77246	a a i	-2.088577
-3.580066	a a m	-0.9374872
-1.216454	a a r	-3.621098
-2.355029	a a s	-2.467029
-0.9666696	a a u	-3.758332
-0.7301918	b a </s>
-2.982551	b a b	-2.028702
-3.988523	b a c	-1.308299
-1.756427	b a d	-2.098732
-1.250927	b a g	-4.110842
-3.243929	b a h	-2.132352
-1.145175	b a i	-4.046304
-2.332794	b a j	-1.976239
-2.427605	b a k	-2.904758
-0.4246937	b a l	-3.112355
-1.712557	b a m	-2.723485
-1.092803	b a n	-3.589692
-4.500407	b a o	-1.306811
-3.400036	b a p	-2.381439
-1.05945	b a r	-3.198981
-1.267728	b a s	-2.878513
-1.704561	b a t	-3.806069
-1.720233	b a u	-3.973449
-2.752607	b a v	-2.610815
-3.892952	b a z	-1.806443
-0.472273	c a </s>
-4.944495	c a c	-0.01820356
-1.42951	c a i	-3.389232
-1.266477	c a j	-1.085099
-3.256093	c a k	-1.371122
-0.7883394	c a m	-3.136103
-4.640883	c a p	-0.7544873
-1.8053	c a r	-3.36018
-0.7513419	c a s	-3.849515
-1.786704	c a t	-3.047306
-0.7026021	c a u	-4.52959
-3.235309	c a v	-1.920289
-0.4611173	d a </s>
-2.019635	d a b	-2.966703
-3.188169	d a c	-1.832782
-3.357005	d a d	-2.689652
-2.599332	d a g	-3.147692
-5.581452	d a h	-0.5960718
-2.352795	d a i	-2.899498
-3.266182	d a j	-1.300505
-1.900754	d a k	-3.373172
-1.964417	d a l	-3.301072
-1.323637	d a m	-2.834757
-2.518996	d a n	-2.81571
-4.425105	d a o	-1.639032
-4.172082	d a p	-1.844264
-0.5034123	d a r	-5.053586
-1.460681	d a s	-3.404356
-1.66152	d a t	-3.979338
-0.7175366	d a u	-4.887957
-3.738427	d a v	-2.061261
-5.434764	d a z	-0.8085976
-2.166431	e a a	-2.593428
-1.433666	e a b	-2.400973
-1.839769	e a c	-1.527525
-1.370296	e a d	-3.289687
-2.359228	e a e	-2.511201
-1.388128	e a g	-2.862272
-1.128695	e a i	-3.427466
-2.176563	e a j	-2.060559
-0.9274436	e a k	-2.88546
-1.306878	e a l	-1.942893
-1.382551	e a m	-3.322788
-1.65099	e a n	-1.576786
-2.533195	e a o	-1.705377
-1.365518	e a p	-2.610354
-1.280638	e a r	-1.956568
-0.8940976	e a s	-1.402695
-1.231742	e a t	-2.962053
-0.7102303	e a u	-3.707539
-1.371608	e a v	-3.407819
-1.708546	e a z	-3.01673
-1.184574	f a </s>
-1.571896	f a b	-3.180059
-1.766502	f a c	-3.073745
-3.182992	f a e	-1.642652
-2.975186	f a g	-1.66882
-1.780339	f a i	-2.621404
-3.102168	f a j	-0.2398154
-0.2523665	f a k	-4.324841
-1.447139	f a l	-2.813325
-2.396692	f a m	-2.171612
-0.7371043	f a n	-3.350064
-1.072402	f a r	-3.670208
-2.801138	f a s	-1.169342
-2.498065	f a u	-2.285376
-0.9921151	g a </s>
-1.927086	g a b	-3.530619
-4.873854	g a c	-0.1085126
-0.3392363	g a d	-3.652214
-4.386514	g a f	-1.730541
-5.019982	g a h	-1.038102
-1.033417	g a i	-4.377029
-3.026987	g a j	-1.500856
-4.741229	g a k	-1.181244
-0.8951783	g a l	-4.057673
-1.854946	g a m	-2.18042
-1.35074	g a n	-3.538733
-5.116892	g a o	-0.9534235
-4.264108	g a p	-1.384475
-1.114122	g a r	-4.850963
-1.827554	g a s	-2.750573
-1.424354	g a t	-4.323085
-1.930713	g a u	-3.951308
-2.237366	g a v	-3.635
-2.702337	g a z	-3.211314
-0.1305989	h a </s>
-3.220892	h a b	-1.016779
-3.054561	h a d	-1.650581
-3.794924	h a f	-0.9540379
-3.493894	h a g	-1.215021
-1.558449	h a i	-2.940478
-3.794924	h a j	0.1479368
-1.854781	h a k	-2.819796
-1.743289	h a l	-2.782723
-1.265686	h a m	-2.555666
-1.71529	h a n	-2.181567
-1.244542	h a o	-2.818635
-1.237116	h a r	-3.470109
-3.355591	h a s	-1.324019
-2.1795	h a u	-2.48211
-2.608108	h a v	-2.03512
-2.961477	i a b	-1.542042
-2.961477	i a c	-0.5064528
-2.331588	i a d	-2.250548
-3.214202	i a f	-1.208415
-0.9423606	i a g	-3.517359
-3.170737	i a h	-1.328713
-3.697697	i a i	-0.8635985
-3.112745	i a j	-0.06361389
-1.572832	i a k	-2.312884
-1.05473	i a l	-2.853242
-1.67539	i a m	-2.716646
-0.2710724	i a n	-3.489082
-2.221114	i a p	-2.105191
-2.000196	i a r	-2.461899
-1.253656	i a s	-2.926803
-0.8794311	i a t	-3.489126
-3.170737	i a v	-1.335779
-3.288836	i a z	-1.212299
-0.2911211	j a </s>
-5.556116	j a c	-0.40581
-4.251004	j a d	-2.170657
-1.372998	j a g	-4.195793
-3.552724	j a h	-2.743174
-1.991349	j a i	-3.955822
-3.804832	j a j	-1.055198
-3.244504	j a k	-2.49689
-4.904216	j a l	-1.451079
-1.264915	j a m	-3.22918
-2.929935	j a n	-2.618719
-2.133049	j a r	-4.204907
-1.625071	j a s	-4.072674
-2.332425	j a t	-3.845251
-0.4640302	j a u	-4.375113
-4.326069	j a v	-1.836717
-0.8708751	k a </s>
-1.790911	k a a	-4.027743
-2.609012	k a b	-1.92634
-5.072231	k a c	-0.5953122
-1.153227	k a d	-3.784464
-3.191049	k a f	-3.055309
-5.086471	k a g	-1.475934
-5.939783	k a h	-0.8234568
-0.7557904	k a i	-4.352629
-2.479088	k a j	-2.591949
-2.657042	k a k	-2.955158
-1.680039	k a l	-2.309527
-1.192019	k a m	-3.578763
-1.936647	k a n	-3.076956
-4.426872	k a o	-2.105997
-2.432006	k a p	-3.649003
-1.420609	k a r	-3.288114
-0.6582311	k a s	-3.101449
-1.037716	k a t	-4.299825
-0.852686	k a u	-3.803556
-2.405019	k a v	-3.584371
-3.152815	k a z	-3.241666
-1.135308	l a </s>
-0.8371967	l a b	-3.219883
-2.115295	l a c	-2.527845
-2.882342	l a d	-3.447731
-3.952031	l a f	-2.145057
-3.36244	l a g	-2.516927
-3.549202	l a h	-2.324455
-0.3238306	l a i	-4.33508
-2.181492	l a j	-1.131345
-1.920642	l a k	-3.506869
-4.058259	l a l	-2.667342
-1.837143	l a m	-2.616423
-1.995292	l a n	-2.821507
-5.236974	l a o	-0.6341861
-2.16697	l a p	-3.521741
-3.814474	l a r	-2.950966
-1.389559	l a s	-3.199788
-0.8217034	l a t	-4.02822
-1.310735	l a u	-3.509427
-2.231404	l a v	-3.773858
-3.355123	l a z	-2.856779
-0.7280431	m a </s>
-5.296764	m a b	-0.7630618
-2.586195	m a c	-2.468351
-1.975416	m a d	-3.924252
-3.185688	m a e	-2.894682
-2.401473	m a f	-3.290995
-1.808858	m a g	-3.827111
-3.14361	m a h	-2.603768
-1.112798	m a i	-3.465994
-1.590649	m a j	-3.008312
-1.487322	m a k	-3.692119
-1.559065	m a l	-3.178386
-1.560826	m a m	-3.293211
-0.5476539	m a n	-3.620669
-4.790993	m a o	-1.318521
-3.694083	m a p	-2.338866
-1.659744	m a r	-4.263651
-1.406201	m a s	-2.834821
-1.175659	m a t	0.2557378
-2.21731	m a u	-3.397247
-3.799767	m a v	-2.2971
-0.7675578	m a z	-3.789742
-0.5412222	n a </s>
-1.70125	n a b	-3.313705
-2.131496	n a c	-3.024799
-4.221793	n a d	-2.06348
-4.986979	n a e	-1.248165
-2.485598	n a f	-2.529224
-2.282728	n a g	-3.185989
-4.268038	n a h	-1.693736
-1.27048	n a i	-3.445512
-1.96635	n a j	-2.758465
-2.161362	n a k	-3.920137
-1.85521	n a l	-4.188216
-1.280799	n a m	-3.337956
-2.689541	n a n	-3.259697
-2.478568	n a p	-3.558416
-2.429331	n a r	-3.737052
-1.70867	n a s	-2.863158
-2.322392	n a t	-3.298814
-1.054906	n a u	-4.612217
-0.3798498	n a v	-4.006514
-3.549042	n a z	-2.611505
-1.858245	o a </s>
-2.75295	o a c	-0.3155026
-2.075729	o a d	-1.43708
-2.172639	o a e	-1.223341
-1.763976	o a g	-1.610459
-1.525501	o a h	-1.759105
-1.570579	o a k	-1.708608
-0.4807847	o a l	-2.391008
-1.620885	o a m	-1.670688
-1.774699	o a n	-1.508807
-1.636397	o a p	-1.457188
-1.262816	o a r	-2.607816
-1.005692	o a s	-2.295973
-2.146311	o a t	-1.241271
-0.4835526	o a u	-2.692129
-2.473669	o a v	-0.9432637
-2.075729	o a z	-1.304069
-1.104971	p a </s>
-2.416821	p a a	-4.085283
-1.837918	p a b	-3.631705
-2.222289	p a c	-3.218004
-1.708159	p a d	-4.577073
-3.75947	p a e	-2.830587
-2.127336	p a g	-3.256769
-2.2797	p a i	-3.531886
-3.082121	p a j	-0.4827728
-2.036764	p a k	-3.449147
-1.269643	p a l	-3.940708
-1.725816	p a m	-2.939685
-1.909852	p a n	-3.209115
-4.024653	p a o	-1.972095
-2.259331	p a p	-3.74544
-0.326695	p a r	-3.490552
-1.290521	p a s	-2.348631
-0.6723166	p a t	-4.129634
-2.045435	p a u	-3.911885
-1.850196	p a v	-4.355167
-2.231547	p a z	-4.17497
-0.6082658	r a </s>
-2.209451	r a b	-2.905411
-2.683942	r a c	-2.50015
-1.141051	r a d	-4.905256
-4.548598	r a e	-1.697483
-2.861306	r a f	-2.156033
-2.654463	r a g	-3.128232
-2.835159	r a h	-2.715034
-1.759536	r a i	-3.672837
-2.235377	r a j	0.18785
-0.8009867	r a k	-4.206407
-2.586065	r a l	-3.940059
-0.9961659	r a m	-1.408677
-1.637865	r a n	-3.108896
-3.828861	r a o	-2.383632
-2.892833	r a p	-2.949129
-3.896372	r a r	-1.973805
-0.7873732	r a s	-3.294756
-1.562174	r a t	-4.294115
-0.784201	r a u	-3.776527
-2.581547	r a v	-3.384104
-3.000999	r a z	-3.083965
-0.8574238	s a </s>
-3.245183	s a a	-2.917889
-1.934818	s a b	-3.305641
-2.783707	s a c	-1.987
-2.074205	s a d	-4.041124
-1.816877	s a e	-3.082402
-4.299253	s a f	-1.924697
-2.098163	s a g	-3.699113
-4.757281	s a h	-1.36872
-1.509744	s a i	-2.918967
-2.349096	s a j	-1.592876
-0.7883407	s a k	-3.331126
-1.643166	s a l	-2.163683
-1.166745	s a m	-3.092854
-1.619529	s a n	-3.311064
-3.643338	s a o	-2.047513
-1.232504	s a p	-4.663867
-1.382651	s a r	-3.977984
-1.269341	s a s	-1.998643
-1.460779	s a t	-4.207451
-1.126729	s a u	-3.331616
-0.6275427	s a v	-5.047333
-2.460333	s a z	-3.664718
-0.6654852	t a </s>
-2.375433	t a b	-2.75171
-3.159053	t a c	-2.284215
-0.723232	t a d	-3.864934
-5.117896	t a e	-1.396736
-3.528225	t a f	-1.278014
-1.232031	t a g	-4.838481
-4.448889	t a h	-1.827206
-1.463651	t a i	-4.448939
-1.810658	t a j	-3.194673
-1.693423	t a k	-2.787852
-2.074059	t a l	-1.844798
-0.9283775	t a m	-3.365639
-2.133294	t a n	-2.878182
-2.573983	t a p	-3.372608
-1.592657	t a r	-4.679869
-0.6590089	t a s	-3.347537
-2.120055	t a t	-3.947777
-1.39085	t a u	-4.742103
-1.502823	t a v	-5.032709
-5.595017	t a z	-0.9162776
-0.1878242	u a l	-3.390851
-2.434569	u a m	-0.7374825
-2.0086	u a n	-1.299501
-0.6194341	u a r	-2.880558
-1.19778	u a s	-2.34966
-1.522524	u a t	-1.950226
-2.434569	u a u	-1.094659
-1.275635	v a </s>
-3.742889	v a b	-2.039776
-5.86674	v a c	-0.09081477
-1.777483	v a d	-5.000273
-3.731078	v a f	-2.594201
-2.638682	v a g	-3.282199
-5.638638	v a h	-0.1403731
-0.4200147	v a i	-4.479721
-1.344705	v a j	-2.008615
-2.311969	v a k	-3.284415
-0.5420169	v a l	-4.521788
-2.004728	v a m	-3.803069
-2.199069	v a n	-2.657507
-4.636292	v a p	-1.695798
-0.8232195	v a r	-5.342189
-1.3645	v a s	-3.28301
-3.244526	v a t	-2.836487
-4.366138	v a z	-1.92446
-0.7256334	z a </s>
-2.853773	z a b	-2.383415
-2.643468	z a c	-1.967914
-1.924773	z a d	-3.448098
-0.6638549	z a g	-3.718125
-2.661379	z a h	-1.890163
-1.184601	z a i	-3.307106
-1.492742	z a j	-2.255883
-2.683656	z a k	-2.128089
-2.026584	z a l	-2.826704
-0.6638319	z a m	-2.676645
-2.194278	z a n	-2.39568
-4.764041	z a p	-0.5077677
-1.285571	z a r	-3.981303
-1.057267	z a s	-2.912254
-1.396996	z a t	-3.894908
-1.183953	z a u	-3.780646
-4.535939	z a v	-0.1802983
-0.8410947	<s> b a	-4.724703
-0.2738472	<s> b e	-2.39805
-0.6263199	<s> b i	-4.905042
-5.377352	<s> b j	-0.7857445
-2.024566	<s> b l	-2.076581
-2.303725	<s> b o	-3.155904
-1.25455	<s> b r	-2.494005
-1.768732	<s> b u	-4.311512
-3.937428	a b </s>
-0.5250059	a b a	-2.241416
-2.494164	a b d	0.1505048
-1.880863	a b e	-3.245511
-5.061806	a b g	0.469604
-0.436307	a b i	-2.714307
-3.243136	a b j	-2.108882
-4.323888	a b k	-1.353847
-2.332084	a b l	1.266508
-4.980392	a b m	-0.01896685
-5.061806	a b n	-0.8263522
-1.212494	a b o	-3.058174
-3.351162	a b p	-1.94387
-1.499196	a b r	-1.282268
-1.03632	a b s	-2.510479
-3.481495	a b t	-0.1904595
-0.8982896	a b u	-3.157668
-2.86149	a b v	0.01093459
-0.07292771	b b e	-0.8280001
-0.1678187	c b a	-2.460004
-0.5155177	c b i	-2.339308
-1.850702	c b u	-1.038535
-0.375177	d b a	-2.072239
-1.724496	d b e	-0.8204524
-1.005882	d b i	-1.486305
-0.434491	d b o	-1.862241
-1.724496	d b r	-0.7919212
-1.144185	d b u	-1.188726
-0.7435344	e b </s>
-1.544809	e b a	-1.508723
-2.73602	e b d	-1.990778
-1.415621	e b e	-2.859653
-4.114418	e b h	0
-0.8155208	e b i	-1.957816
-1.153519	e b j	-3.521083
-0.59071	e b k	0.0005693436
-2.644595	e b l	-1.455994
-2.516722	e b o	-1.9032
-0.6824108	e b r	-1.493962
-2.092402	e b s	-2.123008
-1.562236	e b t	-1.335336
-1.651271	e b u	-1.783513
-0.1750055	g b </s>
-1.221305	g b a	-1.419921
-0.5865765	g b i	-2.049018
-2.425426	g b r	-0.5460085
-2.107288	g b u	-0.8437771
-0.5840492	i b a	-3.714029
-3.285417	i b d	-1.366442
-1.251419	i b e	-3.167663
-3.919661	i b g	-1.177431
-0.5018831	i b i	-4.192205
-4.238346	i b j	-0.5049754
-3.255453	i b l	2.723053
-3.829485	i b n	1.713293
-1.480936	i b o	-2.117151
-1.938435	i b r	-0.1570959
-1.894671	i b s	-2.13977
-2.588001	i b t	-0.2303317
-0.5125713	i b u	-3.920373
-2.022404	j b a	-1.050386
-2.54763	j b i	-0.8231357
-1.014807	j b o	-2.183712
-0.05036471	j b u	-3.148774
-0.07471613	k b </s>
-1.893386	k b a	-0.7901767
-1.614106	k b e	-0.3872907
-1.672098	k b i	-0.9019578
-1.070038	k b o	-1.457024
-1.893386	k b u	-0.7861012
-0.7596722	l b a	-3.513617
-3.424952	l b d	-1.072965
-1.473475	l b e	-3.384327
-0.4753177	l b i	-4.233924
-1.97724	l b j	-2.636125
-1.490453	l b o	-2.830066
-3.259326	l b r	-1.57485
-0.7665654	l b s	-3.112554
-2.754838	l b t	0.0962534
-0.6179484	l b u	-2.832985
-1.452539	m b </s>
-0.9367597	m b a	-2.825168
-3.674173	m b b	-0.01896685
-2.823094	m b e	-1.55668
-0.7885543	m b i	-2.769783
-1.61822	m b j	-2.427436
-1.977996	m b l	-2.034139
-0.665318	m b o	-2.34377
-2.860882	m b p	-1.490086
-0.555596	m b r	-0.8854187
-2.623521	m b s	-0.9117528
-0.8185335	m b u	-2.065385
-0.1077016	n b a	-2.805473
-0.921542	n b e	-2.155072
-1.287513	n b i	-1.756229
-1.824632	n b r	-1.222702
-1.48884	n b u	-1.624432
-4.516196	o b </s>
-0.6172547	o b a	-1.696557
-2.845168	o b d	-1.606202
-1.018432	o b e	-3.761666
-2.546359	o b g	-0.9959043
-0.739067	o b i	-1.435196
-1.109178	o b j	-0.315084
-2.104	o b l	-0.5531383
-4.516196	o b n	-0.5290532
-1.240457	o b o	-2.862916
-0.9596565	o b r	-0.920022
-1.660303	o b s	-2.156979
-2.084345	o b t	-0.4791737
-0.7144074	o b u	-2.520566
-4.13117	o b v	-0.4251749
-0.3147006	p b a	-2.921556
-1.425361	p b e	-2.218059
-0.9668551	p b i	-2.539867
-2.238274	p b l	-1.044408
-0.6145552	p b r	-1.919075
-0.916996	p b u	-2.623995
-0.5020599	r b a	-3.909936
-4.049801	r b c	0
-3.043919	r b d	-0.1219625
-2.152674	r b e	-3.049152
-3.586044	r b g	-0.5165616
-0.7429668	r b i	-3.808867
-2.533085	r b j	-2.419714
-4.768414	r b l	-0.6612529
-1.449819	r b n	-0.9987128
-0.855539	r b o	-2.80623
-3.14425	r b r	-1.749088
-0.9754834	r b s	-3.423728
-2.504606	r b t	-0.6707938
-0.6805936	r b u	-3.077168
-4.392224	r b v	-0.7800571
-1.17164	s b a	-1.883871
-0.3175131	s b e	-2.454205
-0.5526699	s b i	-2.600482
-0.8770446	s b o	-2.389384
-1.711893	s b r	-1.715698
-1.729991	s b u	-1.68573
-1.163972	t b </s>
-0.3137296	t b a	-4.400668
-2.693858	t b e	-1.689696
-0.4857025	t b i	-4.515168
-2.690269	t b l	-0.2598059
-1.297145	t b o	-3.742241
-1.204419	t b r	-2.098675
-2.68494	t b u	-2.545979
-0.8645194	u b a	-3.260622
-1.268394	u b e	-3.467845
-1.018553	u b i	-3.307774
-1.52984	u b j	-2.922817
-3.718066	u b k	-0.9217329
-0.3322805	u b l	-3.333793
-3.915932	u b n	-0.2382047
-1.66307	u b o	-2.603986
-2.568077	u b p	-1.894938
-2.62552	u b r	-1.943949
-1.422498	u b s	-2.390305
-1.961239	u b t	-2.415753
-0.8446723	u b u	-3.034307
-0.002419474	v b o	-2.078912
-1.080838	z b a	-3.223288
-0.9984666	z b e	-3.663103
-1.39324	z b i	-2.788356
-1.970291	z b l	-1.788496
-2.444288	z b o	-2.212322
-0.1324661	z b r	-3.533711
-1.606252	z b u	-3.037977
-1.36183	<s> c a	-4.482018
-0.7670518	<s> c e	-4.134047
-0.1104411	<s> c i	-4.402168
-2.783146	<s> c m	-2.715101
-3.585075	<s> c o	-2.3604
-2.087212	<s> c u	-3.820267
-2.315603	a c a	-2.272439
-2.6144	a c d	-2.269104
-0.6646594	a c e	-3.147651
-0.1599848	a c i	-4.380487
-2.661396	a c o	-1.605173
-1.867406	a c s	-1.397853
-1.822367	a c t	-1.83221
-1.270764	a c u	-1.532808
-0.01930515	b c i	-1.337956
-0.1656258	c c e	-1.32645
-0.5336026	c c i	-1.105611
-0.5201559	d c a	-1.134442
-0.1927969	d c e	-1.464822
-1.404078	d c i	-0.523259
-1.105512	e c </s>
-0.6955443	e c a	-1.430566
-2.905832	e c b	-0.5919206
-4.229772	e c c	-0.9635575
-1.747374	e c d	-0.9258709
-0.9791888	e c e	-2.448662
-4.162825	e c f	-0.8750613
-3.096765	e c g	0.01046562
-0.4567411	e c i	-4.545383
-4.308953	e c k	0.1212215
-3.405863	e c l	-1.803644
-2.416858	e c m	-2.830805
-3.646195	e c n	-1.015189
-1.119322	e c o	-2.336037
-2.736081	e c p	-1.734821
-3.007923	e c r	-0.06584072
-1.647803	e c s	-0.07593822
-4.988755	e c t
-0.8548093	e c u	-2.714584
-3.790439	e c v	0.2065591
-0.7781513	g c a	-0.8582358
-0.5351132	g c e	-1.191095
-0.2833012	g c i	-1.467218
-1.560346	i c </s>
-0.53514	i c a	-3.892284
-4.717429	i c d	-0.7553321
-1.924931	i c e	-1.830793
-4.717429	i c g	1.398561
-4.438148	i c h	-0.6452031
-0.3122081	i c i	-3.388912
-1.285478	i c o	-3.672376
-4.137119	i c p	-1.163354
-3.159395	i c s	-0.4386632
-0.8894829	i c u	-4.002625
-0.01336396	j c i	-1.533389
-3.116031	k c a	-1.205023
-1.08558	k c e	-2.957164
-0.03759294	k c i	-4.39571
-1.076648	l c </s>
-2.545474	l c a	-1.175682
-3.072283	l c b	-1.073013
-1.387764	l c e	-2.368231
-2.373313	l c h	-0.7762167
-0.06263932	l c i	-3.847875
-3.793478	l c o
-3.113676	l c s	0.5981804
-3.210586	l c u	-0.4619244
-1.048288	m c a	-0.7307411
-0.1535839	m c e	-1.395531
-0.7178553	m c i	-0.9957874
-2.622796	n c </s>
-1.896728	n c a	-2.052843
-0.5152606	n c e	-2.850769
-0.189596	n c i	-4.375535
-2.310027	n c k	-1.315952
-2.494893	n c l	-1.970731
-1.681979	n c o	-2.570364
-2.641021	n c s	-0.5096459
-2.663297	n c u	-1.558162
-1.992771	o c </s>
-2.330646	o c a	-2.278704
-0.1315456	o c e	-3.174455
-0.6103147	o c i	-2.418065
-3.291728	o c k	0.1658833
-3.358675	o c m	-1.202284
-3.659705	o c s	0.6395731
-1.152051	p c e	-2.036204
-0.03888545	p c i	-3.631508
-1.821732	p c u	-2.104097
-2.612372	r c </s>
-1.155837	r c a	-1.969434
-1.155837	r c b	-2.218495
-2.420486	r c c	-0.9635575
-2.195546	r c d	-0.9904531
-1.476709	r c e	-1.390191
-2.753701	r c f	-0.8750613
-2.788463	r c h	-0.1419721
-0.2236983	r c i	-3.506814
-2.637195	r c k	-1.285152
-1.885373	r c l	-1.857543
-2.788463	r c n	-1.015189
-0.8489437	r c o	-2.415254
-1.872009	r c p	-1.155789
-2.753701	r c r	0.4081591
-2.505916	r c s	0.2886512
-2.022546	r c t	-1.826494
-1.598131	r c u	-1.792252
-2.753701	r c v	-0.30103
-0.5850267	s c a	-2.275061
-0.1856044	s c e	-1.883157
-1.062148	s c i	-2.05716
-0.01139409	t c e	-3.602744
-1.712749	t c i	-2.445148
-2.188849	t c u	-2.116418
-0.3882869	u c </s>
-0.6187432	u c a	-4.065262
-1.948576	u c e	-2.624048
-0.8123717	u c i	-4.227107
-4.574454	u c m	-0.8252125
-1.228103	u c o	-3.408441
-4.119082	u c s	0.5256298
-0.9000223	u c u	-3.905551
-2.323255	v c e	-0.4579986
-0.004963419	v c i	-2.330067
-2.323255	v c o
-2.334863	z c a	-1.94142
-0.343514	z c e	-3.250871
-0.2697816	z c i	-4.004902
-2.334863	z c u	-1.998508
-0.3607027	<s> d a	-5.014604
-1.083162	<s> d e	-4.077077
-0.6201901	<s> d i	-4.905066
-1.005004	<s> d o	-3.961818
-1.318899	<s> d r	-3.995543
-1.798564	<s> d u	-4.589667
-3.54761	<s> d v	0.04262304
-1.10341	<s> d z	-4.647288
-0.1937906	a d </s>
-1.021019	a d a	-2.25758
-5.303584	a d b	-0.921908
-5.127493	a d c	-0.9578692
-4.701524	a d d	-1.408833
-2.372572	a d e	-3.00544
-5.582865	a d f	-0.5045285
-5.303584	a d g	-0.9503198
-1.144796	a d i	-2.829218
-4.38713	a d j	-1.157068
-4.884455	a d k	-0.4222418
-4.759516	a d l	-0.7817167
-3.019154	a d m	-2.53011
-3.235398	a d n	-0.3128896
-1.171257	a d o	-3.29151
-5.582865	a d p	-0.7490931
-2.218874	a d r	-0.1173015
-1.948133	a d s	-2.350105
-5.206674	a d t	-0.5069761
-1.042271	a d u	-3.076593
-3.482398	a d v	-1.832996
-1.944888	a d z	-3.800612
-0.2276142	b d a	-2.920306
-0.395773	b d i	-2.692228
-2.263044	b d u	-1.100627
-1.28471	c d a	-2.001765
-0.8192092	c d e	-2.82739
-0.1001028	c d i	-3.228287
-2.686971	c d o	-0.9268103
-0.7660061	d d a	-1.998312
-2.063923	d d e	-0.8739775
-0.1222694	d d i	-2.64502
-1.285772	d d o	-1.604158
-2.588823	d d v	-0.5008695
-2.005931	d d z	-0.7662873
-1.322716	e d </s>
-0.8735791	e d a	-1.907823
-4.736686	e d b	-0.921908
-4.560595	e d c	0.00543344
-4.208413	e d d	-1.365506
-1.50925	e d e	-3.212245
-4.384504	e d f	-0.9565343
-2.467173	e d g	-0.6572847
-1.098122	e d i	-3.418073
-4.006308	e d k	-0.1560459
-3.07987	e d l	-0.7993184
-2.812407	e d m	-2.651439
-2.13517	e d n	-0.6801312
-0.8411809	e d o	-3.074164
-4.016527	e d p	-1.964999
-0.9234473	e d r	-0.9246356
-2.472164	e d s	-2.470067
-3.883901	e d t	-1.280164
-1.119804	e d u	-2.672984
-2.41395	e d v	-0.6873493
-0.4586962	e d z	-2.862205
-0.02582824	g d a	-3.066364
-2.70109	g d e	-0.8193164
-2.421809	g d i	-0.5844182
-2.370657	g d o	-0.9524794
-2.847778	g d s	0.3841547
-1.92696	g d u	-0.6759434
-1.467567	g d z	-1.675368
-0.07516063	h d u	-0.8265991
-2.288007	i d </s>
-0.9404464	i d a	-3.435265
-5.116598	i d b	-0.781639
-4.594279	i d c	-0.7322801
-4.235257	i d d	-1.408833
-0.7409501	i d e	-4.719395
-4.895309	i d f	-0.8239087
-4.235257	i d g	0.443326
-0.8812146	i d i	-3.922041
-3.448151	i d k	-0.3272126
-2.717978	i d l	-2.571092
-4.740407	i d m	-0.9468927
-1.711348	i d n	-0.7197204
-0.9078533	i d o	-3.043783
-3.555716	i d p	-1.728267
-0.7559876	i d r	-3.475681
-1.5412	i d s	-3.308187
-5.116598	i d t	-0.7581714
-1.118473	i d u	-3.132828
-4.208928	i d v	1.847706
-0.8508923	i d z	-3.209361
-0.1228457	j d a	-1.673338
-1.518651	j d e	-0.526445
-0.7596679	j d i	-0.8592277
-1.518651	j d z	-0.3414935
-0.2797039	k d a	-3.252145
-2.939145	k d e	-0.8556076
-0.6300471	k d i	-2.957738
-0.6234367	k d o	-3.222251
-2.939145	k d z	-0.7662873
-0.7632317	l d a	-3.29597
-3.244917	l d b	-1.844521
-4.498876	l d c	-0.471533
-2.453402	l d d	-0.9932722
-1.110923	l d e	-3.918853
-4.670326	l d f	-0.7809281
-4.214954	l d g	0.5101435
-0.2397637	l d i	-4.043192
-4.670326	l d j	-0.8044419
-3.22595	l d k	-0.4566977
-3.335094	l d l	-0.3438641
-3.750067	l d m	-0.6713191
-1.927339	l d n	-0.2994745
-1.477497	l d o	-3.521698
-3.272946	l d p	-1.973686
-2.221885	l d r	0.7979155
-1.986212	l d s	-2.595798
-1.016068	l d u	-2.941435
-2.656646	l d v	-0.1758692
-2.082214	l d z	-1.481439
-0.6746356	m d a	-2.627762
-1.170014	m d e	-2.451828
-0.2534062	m d i	-3.099847
-1.166974	m d o	-2.312328
-1.865944	m d s	-1.003642
-1.143386	m d u	-1.818342
-3.480244	m d v	-0.5008695
-2.052254	m d z	-1.56792
-4.865345	n d </s>
-0.7285085	n d a	-1.467161
-3.271728	n d b	-1.719992
-4.282452	n d c	-0.5087203
-4.865345	n d d	-0.4477972
-1.285448	n d e	-2.866263
-0.9365151	n d i	-3.23541
-4.071599	n d j	-1.073107
-2.485704	n d k	-1.157476
-4.144149	n d l	-1.072709
-2.645213	n d n	-0.7831643
-1.541498	n d o	-1.810684
-3.282452	n d p	-0.3070003
-0.9291612	n d r	-0.4483345
-1.432726	n d s	-2.882446
-3.955093	n d t	-1.138391
-0.3903715	n d u	-2.871253
-4.561733	n d v	-0.7780559
-1.316898	n d z	-3.341306
-1.104522	o d </s>
-0.4727009	o d a	-2.579483
-5.030855	o d b	-0.5890326
-4.859406	o d d	-0.4189362
-1.362187	o d e	-2.768615
-4.751575	o d f	-0.8624722
-5.030855	o d g	-0.8228251
-1.087473	o d i	-3.460468
-4.751575	o d k	-0.377364
-3.891237	o d l	-1.293993
-2.610909	o d n	-0.4971337
-1.262284	o d o	-3.366967
-3.411626	o d p	-1.776722
-2.104314	o d r	0.4456937
-1.257072	o d s	-3.360317
-0.4913301	o d u	-3.03636
-3.521126	o d v	-1.172665
-1.805307	o d z	-3.016972
-0.4656855	p d a	-3.015639
-0.9391724	p d e	-2.6695
-1.323748	p d i	-2.207234
-1.222474	p d o	-1.851429
-1.206555	p d r	-2.391781
-1.328158	p d u	-2.460725
-1.541232	p d v	-1.494005
-0.5267586	p d z	-3.000159
-3.861963	r d </s>
-0.7926989	r d a	-2.36751
-3.648083	r d d	-1.191901
-1.588646	r d e	-2.384043
-0.580496	r d i	-3.864224
-2.973937	r d l	-1.363306
-3.699236	r d n	1.316565
-1.40795	r d o	-3.065589
-4.279547	r d r	-0.77804
-0.6248996	r d s	-1.433883
-0.7238903	r d u	-2.844759
-1.078319	r d z	-1.507352
-0.5847149	s d a	-2.728279
-1.902398	s d e	-1.861529
-0.1951381	s d i	-3.190631
-1.918485	s d o	-1.639066
-1.642761	s d r	-1.805037
-1.609337	s d u	-2.034916
-1.528818	s d z	-1.84744
-1.317146	t d a	-2.903654
-0.7518609	t d e	-3.697156
-0.9023822	t d i	-3.230944
-0.2479722	t d o	-3.561459
-2.478514	t d r	-1.846041
-1.717133	t d u	-2.759133
-2.741755	t d v	-1.021656
-1.220182	t d z	-3.030112
-2.209071	u d </s>
-0.9268617	u d a	-3.870551
-5.085224	u d b	-0.8184795
-1.630794	u d e	-3.917891
-4.709033	u d g	0.5556216
-1.174233	u d i	-3.63393
-4.408003	u d k	-0.4509718
-2.647204	u d m	-0.927393
-3.863935	u d n	0.214347
-2.039252	u d o	-3.201513
-4.805943	u d p	-0.8802297
-1.028498	u d r	-0.8103855
-2.483207	u d s	-2.196019
-0.6580158	u d u	-3.806974
-4.140831	u d v	-1.551204
-0.3403411	u d z	0.2001686
-1.475634	v d a	-1.893456
-0.02471405	v d e	-3.401176
-2.163609	v d i	-0.6483743
-2.163609	v d u	-1.222993
-2.112456	v d z	-1.090798
-0.5783686	z d a	-3.210615
-0.4949256	z d e	-3.876651
-4.68199	z d g	-0.523834
-1.684751	z d i	-2.718654
-0.5081306	z d o	-3.472122
-2.499761	z d r	-2.282727
-2.544306	z d s	-1.473178
-1.808507	z d u	-1.243441
-2.358735	z d v	-1.880765
-1.22884	z d z	-3.503571
-1.791867	<s> e b	-3.956723
-2.420748	<s> e d	-2.999366
-2.421196	<s> e f	-2.935508
-2.241878	<s> e g	-3.676711
-2.542315	<s> e h	-3.236217
-1.423489	<s> e i	-4.387676
-1.401311	<s> e j	-2.905487
-1.066499	<s> e k	-4.38189
-1.551318	<s> e l	-4.273469
-2.365039	<s> e m	-3.750115
-2.458645	<s> e n	-3.434682
-2.510695	<s> e p	-3.197482
-2.667912	<s> e r	-2.797652
-0.1251466	<s> e s	-4.287883
-2.049922	<s> e t	-3.764973
-5.179119	<s> e u	-0.6882862
-2.926256	<s> e v	-0.6873946
-2.4458	<s> e z	-3.25633
-2.557819	a e d	-1.858654
-3.842495	a e g	-0.7658463
-0.03755386	a e i	-4.416917
-1.922236	a e j	-1.357122
-1.631248	a e l	-2.561843
-1.78961	a e r	-2.571018
-1.557819	a e s	-2.966484
-3.18755	a e t	-1.238735
-3.007823	b e </s>
-5.119254	b e a	-0.9279943
-2.691119	b e b	-2.75378
-2.380473	b e d	-3.509184
-4.009506	b e g	-1.981116
-4.679921	b e h	-1.360681
-1.028753	b e i	-4.892363
-2.990531	b e j	-2.473375
-2.986514	b e k	-2.564791
-2.695189	b e l	-2.783062
-4.818223	b e m	-0.6006153
-1.967884	b e n	-3.052091
-1.841902	b e r	-2.808529
-2.609715	b e s	-2.937558
-0.1373018	b e t	-4.00005
-0.8587348	b e z	-3.533911
-1.221692	c e </s>
-3.230034	c e b	-2.208951
-4.447518	c e c	-0.7893156
-2.410091	c e d	-2.910048
-3.224801	c e f	-1.691118
-3.942368	c e g	-1.328314
-2.748548	c e h	-2.661088
-1.846001	c e i	-3.712018
-2.715929	c e j	-2.173146
-1.956016	c e k	-3.271697
-0.8190164	c e l	-3.968242
-2.146705	c e m	-3.253497
-0.5706132	c e n	-3.327102
-1.113527	c e p	-3.63836
-0.4758987	c e r	-4.088529
-1.235463	c e s	-3.306921
-2.060662	c e t	-3.31426
-1.091119	d e </s>
-1.770423	d e b	-3.742714
-2.27949	d e c	-2.965127
-2.113977	d e d	-3.154246
-4.303257	d e e	-1.219308
-2.527373	d e f	-1.42131
-1.138477	d e g	-3.14492
-4.303257	d e h	-1.220654
-3.783101	d e i	-1.700194
-1.1645	d e j	-2.765225
-2.161611	d e k	-3.029885
-1.056989	d e l	-3.822672
-1.914091	d e m	-2.347522
-0.5630866	d e n	-3.4709
-1.447775	d e o	-3.583675
-1.950231	d e p	-3.267511
-1.541705	d e r	-3.117999
-1.096768	d e s	-2.930914
-2.397124	d e t	-2.933782
-0.6921378	d e v	-3.997912
-2.81102	d e z	-2.514846
-2.659425	e e a	-2.256002
-2.143745	e e b	-2.595351
-2.294006	e e c	-1.814715
-1.611058	e e d	-1.596538
-2.712068	e e e	-2.147329
-1.981585	e e g	-1.081808
-3.769421	e e h	-0.6692854
-2.101693	e e i	-1.580655
-0.5849631	e e j	-2.909047
-1.709835	e e k	-2.332167
-1.698406	e e l	-2.646384
-1.846665	e e m	-1.516657
-2.346657	e e n	-1.737689
-3.259507	e e o	-1.654624
-1.874388	e e p	-2.455218
-1.796021	e e r	-2.507167
-0.2497858	e e s	-2.865713
-1.954938	e e t	-1.670412
-3.040828	e e u	-1.822262
-1.936536	e e v	-2.383057
-2.208179	e e z	-2.485509
-3.486643	f e </s>
-2.719487	f e i	-2.065349
-2.152189	f e j	-2.077042
-0.7994263	f e k	-3.957192
-1.979462	f e l	-2.923732
-1.995982	f e m	-2.748151
-1.738067	f e n	-2.976304
-3.583553	f e o	-1.208762
-0.1735776	f e r	-3.811941
-0.9422028	f e s	-3.835507
-2.098364	f e t	-2.611961
-3.833431	f e z	-0.3362193
-2.043555	g e b	-2.037752
-2.239242	g e d	-1.751941
-2.389397	g e i	-1.545986
-0.2683944	g e j	-3.108856
-3.149065	g e k	-0.8896839
-2.05652	g e l	-1.562277
-1.759899	g e m	-1.512411
-0.700552	g e n	-2.779435
-1.343734	g e o	-2.665193
-3.052155	g e p	-0.979818
-1.063596	g e r	-2.621007
-1.589757	g e s	-2.404858
-1.248698	g e t	-2.772286
-2.972974	g e z	-0.950355
-1.450752	h e </s>
-2.853013	h e b	-0.8530921
-2.132854	h e d	-1.615566
-1.797062	h e g	-1.940697
-0.7561034	h e i	-3.028528
-3.132294	h e j
-1.638832	h e k	-1.860777
-0.5800121	h e l	-3.132825
-1.388747	h e m	-2.512417
-1.361652	h e n	-2.236115
-1.413681	h e o	-2.587128
-2.17632	h e p	-1.483062
-0.4851917	h e r	-2.901155
-1.680556	h e t	-2.087516
-1.059665	i e </s>
-2.743941	i e a	-3.849236
-2.105715	i e b	-4.324631
-1.892092	i e c	-2.503364
-1.431668	i e d	-2.672626
-2.477293	i e e	-4.169888
-1.682176	i e g	-2.698519
-3.148079	i e i	-3.576831
-3.363665	i e j	-2.941811
-0.9459568	i e k	0.04763412
-1.366825	i e l	-4.278527
-0.7647527	i e m	-3.735049
-0.8482971	i e n	-1.254266
-4.504293	i e o	-2.186169
-2.287711	i e p	-3.593443
-1.710069	i e r	-3.905934
-0.943768	i e s	-2.121228
-0.8766687	i e t	-3.160553
-3.989821	i e u	-2.66209
-1.118394	i e v	-4.546912
-1.97523	i e z	-3.631134
-0.3481533	j e b	-4.505035
-2.750159	j e f	-2.277482
-2.887497	j e h	-2.20644
-0.7165204	j e k	-4.354741
-1.685867	j e l	-3.400693
-3.479092	j e m	-0.8987207
-1.640692	j e n	-2.916129
-0.530609	j e r	-3.848145
-2.51801	j e s	-2.468949
-2.510164	j e t	-2.515046
-2.663008	j e v	-1.677981
-2.025337	j e z	-3.044108
-2.565372	k e </s>
-3.546349	k e b	-0.8905227
-2.546349	k e d	-1.75311
-3.488357	k e f	-0.952353
-3.686223	k e g	-0.7689108
-2.728689	k e i	-1.659457
-0.2984456	k e j	-3.398417
-1.574543	k e l	-2.785567
-2.291076	k e m	-1.477504
-1.564077	k e n	-1.9276
-1.569279	k e p	-2.759716
-1.194442	k e r	-2.538221
-3.187327	k e s	-1.220618
-0.4708539	k e t	-3.800051
-0.709098	l e </s>
-3.910506	l e a	-1.340402
-2.327402	l e b	-3.061481
-1.261578	l e c	-2.469513
-1.5984	l e d	-3.469903
-1.308628	l e f	-3.962925
-2.228889	l e g	-2.97985
-1.845425	l e i	-3.267397
-1.132506	l e j	-2.435209
-0.8993063	l e k	-3.804964
-2.169815	l e l	-3.040837
-1.064118	l e m	-3.13219
-1.705934	l e n	-2.529848
-1.991865	l e o	-3.165885
-0.8310691	l e p	-3.569378
-1.17751	l e r	-3.279196
-1.327875	l e s	-3.233925
-1.382126	l e t	-2.020345
-3.968498	l e u	-1.296205
-1.968498	l e v	-2.892352
-1.840161	l e z	-3.436794
-0.8311204	m e </s>
-4.59094	m e a	-0.944432
-4.046871	m e c	-1.42807
-1.221561	m e d	-3.231635
-3.988879	m e f	-0.9637402
-2.688529	m e g	-2.574641
-3.184399	m e h	-2.292048
-1.149637	m e i	-4.009188
-1.742981	m e j	-2.173195
-2.77387	m e k	-2.449298
-0.8407589	m e l	-3.497279
-2.561556	m e m	-2.41896
-0.7827199	m e n	-3.6656
-4.26358	m e o	-1.237941
-1.470242	m e r	-3.647822
-0.8062863	m e s	-4.106194
-0.7169869	m e t	-2.832639
-2.306791	m e z	-3.06189
-0.6634122	n e </s>
-1.459876	n e a	0.1104517
-4.148632	n e b	-1.932143
-3.27123	n e c	-2.495061
-1.69508	n e d	-3.213153
-1.295411	n e e	0.1020808
-4.172766	n e f	-1.466318
-2.879666	n e g	-2.132118
-1.05429	n e i	-2.567355
-3.113689	n e j	-1.497668
-0.8033962	n e k	-4.90032
-2.00666	n e l	-3.664155
-1.520391	n e m	-3.499388
-2.547747	n e n	-2.613444
-1.813871	n e o	-1.721139
-1.852303	n e p	-0.317039
-1.647116	n e r	-3.523369
-1.107627	n e s	-3.443093
-1.499648	n e t	-4.497555
-2.575802	n e u	-0.5708101
-0.7842789	n e v	-4.726303
-1.239013	n e z	-0.6242785
-2.127295	o e </s>
-1.594316	o e d	-1.715692
-0.3892614	o e f	-2.961119
-2.733935	o e g	-0.2922207
-1.789543	o e i	-1.567137
-1.170224	o e j	-0.9993402
-1.025306	o e k	-2.616241
-0.6684355	o e l	-2.541002
-1.025306	o e n	-2.36668
-2.127295	o e p	-1.199841
-1.895346	o e r	-1.46576
-2.316352	o e s	-1.020146
-1.428325	o e t	-1.899132
-2.127295	o e v	-1.232007
-1.896417	p e </s>
-1.453257	p e c	-3.02225
-1.342154	p e d	-3.566878
-3.91864	p e g	-1.201932
-1.644915	p e i	-3.301863
-2.119299	p e j	-1.449889
-1.177932	p e k	-3.67363
-0.9109185	p e l	-3.192806
-4.417536	p e m	-0.1768567
-0.7318245	p e n	-3.477246
-3.946668	p e o	-1.17201
-3.283911	p e p	-1.844996
-0.3557597	p e r	-1.616692
-1.540469	p e s	-3.156786
-1.503458	p e t	-3.513277
-1.466655	r e </s>
-2.345765	r e a	-3.4972
-2.557698	r e b	-3.123269
-1.785413	r e c	-3.201407
-1.027319	r e d	-4.234416
-4.229111	r e e	-1.731808
-1.316387	r e f	-3.041189
-2.713777	r e g	-2.840756
-4.162164	r e h	-1.784098
-0.6149111	r e i	-4.811913
-1.577456	r e j	-2.815123
-1.53397	r e k	-3.8376
-2.822255	r e l	-2.701024
-1.366737	r e m	-3.005607
-1.134103	r e n	-3.029375
-2.831493	r e o	-2.763588
-2.149796	r e p	-3.109163
-1.046559	r e s	-3.279251
-0.6902092	r e t	-1.942544
-3.173336	r e v	-2.355577
-1.105211	r e z	-4.692403
-1.001219	s e </s>
-3.115955	s e a	-2.379356
-3.168891	s e b	-2.322531
-2.394442	s e c	-2.827942
-1.746861	s e d	-3.324223
-3.486312	s e f	-1.493401
-1.53193	s e g	-2.76027
-2.052327	s e i	-3.348511
-1.621561	s e j	-3.18725
-0.9034513	s e k	-4.013494
-1.213623	s e l	-3.93381
-2.888448	s e m	-1.639393
-0.6754658	s e n	-2.592652
-2.123315	s e p	-3.245065
-1.567636	s e r	-3.088969
-1.54862	s e s	-3.204207
-2.665126	s e t	-2.8801
-4.224592	s e u	-1.249336
-0.4660343	s e v	-4.493707
-2.049721	s e z	-3.440786
-0.6645322	t e </s>
-4.706388	t e a	-1.277653
-4.394077	t e b	-1.597541
-3.056746	t e c	-2.6471
-4.159067	t e d	-1.777349
-3.638789	t e f	-1.803894
-2.526504	t e g	-3.347429
-2.017547	t e h	-3.298912
-0.478408	t e i	-4.83829
-2.268304	t e j	-2.129796
-1.504373	t e k	-2.698829
-1.623773	t e l	-3.910878
-2.133945	t e m	-2.904868
-1.253384	t e n	-3.133543
-2.505998	t e o	-3.609941
-2.296722	t e p	-3.496914
-0.9412177	t e r	-3.989652
-1.827534	t e s	-3.527414
-3.071328	t e t	-2.737538
-0.7575043	t e v	-4.696467
-3.268304	t e z	-2.535005
-2.131083	u e c	-0.2032593
-1.087493	u e l	-1.578211
-0.8694376	u e n	-2.016469
-1.494979	u e r	-1.416833
-0.1290749	u e t	-2.627097
-2.200182	v e </s>
-4.557879	v e b	-1.213441
-0.8122239	v e c	-3.982252
-1.143188	v e d	-4.523164
-4.807757	v e f	-0.9921688
-4.099241	v e g	-1.637912
-0.5170125	v e i	-4.84332
-2.300351	v e j	-2.683295
-3.203291	v e k	-2.460046
-0.8264517	v e l	-4.419711
-2.077333	v e m	-2.769547
-0.9459768	v e n	-3.770152
-5.13819	v e o	-0.8048797
-2.777922	v e p	-2.921989
-1.012611	v e r	-2.794217
-1.070175	v e s	-3.786111
-2.653434	v e t	-2.989375
-5.13819	v e v
-3.005363	v e z	-2.555317
-0.9417389	z e </s>
-3.059639	z e b	-2.173063
-3.993763	z e d	-1.428786
-3.018586	z e g	-1.923144
-4.425127	z e i	-1.079689
-1.123836	z e j	-2.334709
-3.331705	z e k	-2.215257
-0.919312	z e l	-4.030385
-0.2904108	z e m	-3.377851
-1.054206	z e n	-3.238621
-4.194677	z e o	-1.229143
-3.781674	z e p	-1.728647
-1.116413	z e r	-2.567609
-2.049463	z e s	-2.863847
-2.965734	z e t	-2.306237
-3.684764	z e v	-1.654763
-4.629868	z e z	-0.9106984
-0.3849112	<s> f a	-3.60393
-1.700277	<s> f e	-2.803311
-0.6864065	<s> f i	-4.161049
-3.302492	<s> f j	0
-1.93116	<s> f l	0.6095116
-0.7082097	<s> f o	-2.228892
-1.079478	<s> f r	0.03491068
-3.84656	<s> f t	-1.021402
-1.151341	<s> f u	-3.126143
-1.687215	a f a	-2.339832
-1.3544	a f e	-2.790952
-0.2546541	a f i	-3.49621
-2.474165	a f l	-1.664032
-3.32695	a f n	0
-1.344679	a f o	-2.278513
-2.62798	a f r	-0.6452588
-2.096501	a f s	-0.2315675
-0.5014427	a f t	-2.390637
-2.372707	a f u	-1.700829
-0.3332147	c f i	-1.105645
-0.30103	c f o	-0.9378109
-0.7201593	d f a	-0.5984
-0.2808266	d f o	-1.185147
-0.7781513	d f r	-0.4289388
-0.9994399	d f u	-0.7734712
-2.362371	e f a	-1.741669
-0.1528148	e f e	-3.828249
-1.747867	e f i	-2.690459
-4.150182	e f k	-0.02791548
-2.266135	e f l	-2.369098
-0.6095193	e f o	-3.295777
-2.569871	e f r	-1.252688
-1.76924	e f s	-0.9538989
-2.860177	e f t	-1.908175
-2.680569	e f u	-1.806638
-0.04983889	g f u	-0.7765357
-1.112059	i f a	-2.96629
-1.016811	i f e	-2.347298
-0.5189289	i f i	-3.228676
-3.486073	i f l	-0.7460086
-0.9916174	i f o	-1.716455
-2.54168	i f r	-1.105632
-1.005737	i f s	-1.199334
-1.347954	i f t	0.3258877
-0.5606336	i f u	-3.221529
-0.07516063	j f i	-0.6903872
-1.376191	k f e	-0.8221706
-0.5850267	k f i	-1.390881
-1.376191	k f l	-0.8085517
-0.1870866	k f u	-1.813067
-1.047786	l f a	-3.351115
-2.385299	l f e	-1.461501
-3.031562	l f g	0
-0.319434	l f i	-3.761861
-0.6450209	l f o	-3.17331
-2.86242	l f r	-1.030999
-1.720313	l f s	-0.7293242
-0.7466484	l f u	-3.304263
-1.353014	m f a	-1.63794
-2.116442	m f e	-0.8152386
-1.898958	m f i	-1.632587
-1.837688	m f l	-1.561851
-2.037261	m f m	0
-0.08462942	m f o	-2.739283
-2.793662	m f r	-0.7917345
-1.253119	m f s	-0.2621642
-1.554149	m f u	-1.650311
-2.514382	m f v	0
-0.8690398	n f a	-2.929813
-0.5571218	n f e	-2.063559
-2.536306	n f i	-1.406064
-0.2738548	n f l	-2.738422
-1.479401	n f o	-2.407514
-1.965763	n f r	-1.385023
-2.218243	n f t	-1.457486
-2.655492	n f u	-1.35055
-1.095729	o f a	-3.406709
-0.4218621	o f e	-3.107991
-0.5349328	o f i	-2.920595
-3.373625	o f l	-1.16445
-0.7279567	o f o	-1.697138
-2.954495	o f r	-0.7543179
-1.72162	o f s	-0.1418433
-2.623502	o f t	-1.387243
-1.404558	o f u	-2.697323
-0.615424	p f i	-0.9137595
-0.5185139	p f o	-0.8031123
-0.3723859	p f r	-0.6599437
-1.025495	r f a	-2.264698
-0.1321383	r f e	-2.822497
-1.363474	r f i	-1.852862
-3.456576	r f l	-0.5140144
-1.666184	r f o	-1.85589
-1.045185	r f r	-2.663329
-2.475744	r f s	0.5829339
-2.036411	r f u	-1.457874
-0.09154928	s f a	-3.063708
-1.993028	s f e	-0.9401773
-1.822332	s f i	-1.623042
-0.8105497	s f o	-2.565816
-2.009418	s f u	-1.375991
-0.7770855	t f e	-2.132143
-1.01853	t f i	-1.704844
-0.225779	t f o	-2.072489
-1.39211	t f r	-1.548848
-0.9968106	t f u	-1.865801
-1.764176	u f a	-0.683175
-0.0617456	u f e	-2.247528
-1.560056	u f i	-1.079347
-1.110964	u f l	-0.8124442
-2.443979	u f s	1.375704
-2.287055	u f u	-0.3164364
-0.07516063	v f o	-0.6501669
-0.07463362	z f i	-1.094088
-1.648956	<s> g </s>
-0.1560664	<s> g a	-4.528156
-3.187175	<s> g b	-2.249053
-2.010542	<s> g e	-2.29136
-4.423355	<s> g h	0
-2.483997	<s> g i	-3.550388
-4.710597	<s> g j	-1.146469
-2.167538	<s> g l	-1.867961
-4.166528	<s> g n	-0.5571383
-1.518186	<s> g o	-3.996989
-0.7920092	<s> g r	-2.388426
-1.188503	<s> g u	-4.414407
-2.649427	<s> g v	-0.3254693
-4.592497	<s> g w	0
-0.6723915	a g </s>
-0.2805789	a g a	-2.766057
-4.951646	a g c	-0.68005
-3.267703	a g d	-1.104768
-3.631563	a g e	-2.083244
-1.463717	a g i	-2.275087
-1.539631	a g l	-0.3178568
-2.543595	a g m	-1.732149
-1.998762	a g n	0.1596546
-1.457169	a g o	-3.131813
-1.194441	a g r	0.8662229
-1.858288	a g s	-3.192611
-1.355557	a g t	-0.5491977
-1.537284	a g u	-2.841348
-3.255469	a g v	1.528429
-5.336672	a g z	-0.5287286
-0.02252402	b g a	-2.610974
-2.122282	b g l	-0.1569464
-1.401087	b g v	-1.045698
-0.002592811	c g a	-1.843157
-0.01044502	d g a	-3.076438
-2.872091	d g l	-0.1569464
-2.04616	d g r	-0.7615336
-1.891259	d g u	-1.344695
-2.529628	e g </s>
-1.120923	e g a	1.241832
-2.871046	e g b	-2.274747
-2.305438	e g d	-1.70048
-2.925894	e g e	-1.873081
-2.016585	e g i	-1.455591
-4.620148	e g k	-0.8101267
-0.8832508	e g l	-0.5611806
-2.766836	e g m	-0.7688249
-1.295887	e g o	-1.659044
-2.362573	e g p	-1.901926
-1.349254	e g r	-1.161457
-1.049194	e g s	-2.078841
-0.6175353	e g t	-0.449017
-0.5170595	e g u	-0.6104846
-1.427186	e g v	-0.8767698
-0.02020339	f g a	-1.322611
-0.3273589	g g a	-0.8951085
-0.3273589	g g r	-0.9250312
-0.4075246	i g a	-2.073571
-2.640825	i g d	-1.228328
-3.601058	i g e	-1.123775
-0.8182719	i g i	-2.631398
-1.688404	i g l	-2.349429
-2.654422	i g m	-0.3683203
-2.357245	i g n	1.068117
-1.368062	i g o	-3.333374
-1.226825	i g r	1.397855
-1.034179	i g s	-3.082661
-1.002986	i g t	-0.350924
-1.017895	i g u	-3.497823
-3.601058	i g v	-0.9643428
-1.431806	i g z	-0.959296
-0.1653674	j g a	-1.517556
-0.5228788	j g r	-1.176708
-0.02103356	k g </s>
-1.708562	k g a	-1.726196
-1.562434	k g r	-0.4577222
-0.6230285	l g a	-4.351717
-4.636488	l g c	-0.5072345
-3.090036	l g d	-0.9346466
-2.917875	l g e	-2.190142
-0.3800219	l g i	-3.209443
-3.880087	l g l	-1.025438
-3.647514	l g m	-0.6513142
-1.127878	l g o	-3.196592
-4.029849	l g p	-1.238607
-3.090036	l g r	-0.7014914
-1.557007	l g s	-2.556072
-1.765448	l g t	0.6064916
-0.6534547	l g u	-3.959626
-3.862358	l g v	-1.38149
-0.9824011	m g </s>
-0.06025447	m g a	-3.14335
-2.98235	m g i
-2.098427	m g r	-0.3370488
-1.797397	m g u	-1.525911
-0.5021325	n g a	-2.788166
-2.980449	n g d	-0.749368
-1.906872	n g e	-3.102341
-0.9445193	n g i	-2.417533
-3.718729	n g k	-0.649752
-1.050441	n g l	-0.1475611
-1.283237	n g o	-3.138372
-3.767034	n g p	-1.238607
-1.095316	n g r	1.426722
-0.6694496	n g s	-3.053262
-1.927814	n g t	0.6820734
-0.971849	n g u	-3.307192
-2.409771	n g v	0.3512347
-0.988533	o g </s>
-0.8063233	o g a	-2.017912
-3.971106	o g c	-0.8750613
-2.995929	o g d	-0.3085691
-2.912511	o g e	-1.389923
-3.721228	o g g	0
-0.9496866	o g i	-2.285954
-2.153761	o g l	1.027216
-2.522228	o g m	-0.3196555
-1.782646	o g n	-1.435773
-1.063993	o g o	-2.546743
-4.022258	o g p	-0.9501357
-0.7099751	o g r	1.061325
-1.07556	o g s	-3.389425
-3.846167	o g t	-1.105654
-0.6317205	o g u	-3.678927
-3.140018	o g v	-1.700753
-0.160751	p g a	-3.905906
-1.688614	p g l	-2.429555
-0.800058	p g r	-0.7306874
-0.8944003	p g u	-3.234893
-2.547798	p g v	-1.623633
-2.140046	r g </s>
-0.8292466	r g a	-2.512134
-3.601909	r g b	-1.433753
-3.818618	r g c	-0.5282738
-2.644233	r g d	-1.168
-2.022533	r g e	-2.289372
-4.343843	r g f	0.1350848
-0.8250779	r g i	-2.402871
-3.179835	r g j	-1.146469
-3.185744	r g k	-0.5189842
-3.770313	r g l	-0.9059215
-4.145977	r g m	-0.9813963
-0.635214	r g o	-3.495447
-3.571945	r g p	-1.457366
-2.453571	r g r	-1.460382
-0.9237482	r g s	-2.850536
-1.755042	r g t	0.4729891
-0.5108828	r g u	-3.908869
-3.571945	r g v	1.397044
-3.436283	r g z	-1.777608
-0.0328748	s g a	-2.91757
-1.709003	s g r	0.5803294
-1.274578	s g u	-2.414942
-0.2468777	t g a	-3.263815
-1.813531	t g e	-2.353734
-2.236932	t g l	-1.382466
-2.961207	t g o	-1.262182
-0.4669833	t g r	-2.323642
-1.195539	t g u	-2.905798
-2.197779	t g v	-1.924886
-0.8652345	u g a	-3.308023
-4.026652	u g c	-0.79443
-3.041376	u g d	-0.8296461
-4.064441	u g e	-0.9826658
-0.8520597	u g i	-2.63405
-3.929742	u g k	-0.552842
-2.314845	u g l	-1.798083
-3.342406	u g m	-1.524704
-3.901714	u g n	-0.5070904
-1.307598	u g o	-3.522742
-3.901714	u g p	-1.222196
-2.638966	u g r	-1.505114
-0.497543	u g s	-2.25464
-1.565004	u g t	0.2111299
-0.4966022	u g u	-3.890835
-3.52605	u g v	-1.557581
-3.334982	u g z	-0.7916133
-0.2204787	v g a	-1.776719
-0.4052044	v g o	-1.90251
-0.1875304	z g a	-2.825852
-3.519317	z g i	-0.9503565
-1.19894	z g l	1.479447
-2.204047	z g o	-2.159477
-1.067872	z g r	-0.672672
-0.7228202	z g u	-3.019879
-2.22314	z g v	-2.15221
-0.2859765	<s> h a	-1.612995
-1.253834	<s> h e	-2.545445
-0.8632361	<s> h i	-4.109783
-2.495162	<s> h l	-0.8491805
-0.6706326	<s> h o	-3.299589
-1.574085	<s> h r	-1.734618
-1.346619	<s> h u	-3.467342
-2.907881	<s> h z	0.241262
-0.6116189	a h a	-2.228277
-2.122102	a h e	-1.514856
-0.6937407	a h i	-2.603674
-2.0566	a h l	-0.1673371
-1.662148	a h m	-1.383456
-1.863475	a h o	-1.90595
-1.507597	a h r	1.192055
-0.6851627	a h s	0.4953072
-1.057469	a h t	-1.426627
-0.8470849	a h u	-2.262561
-1.472269	a h v	0
-0.04139268	b h a	-1.015477
-1.554864	c h a
-0.04898646	c h e	-1.529265
-1.554864	c h i
-1.554864	c h u
-0.7655163	e h </s>
-1.611427	e h a	-1.837636
-2.618606	e h e	-1.462718
-1.701275	e h i	-2.165107
-0.1304313	e h n	0
-1.600183	e h o	-2.289862
-2.276183	e h s	1.740009
-1.975153	e h u	-1.477391
-0.01378828	g h z	0.7573012
-1.018415	i h a	-2.14328
-3.458689	i h d	-0.02791548
-1.746038	i h e	-2.496182
-0.296528	i h i	-3.354187
-2.0218	i h l	-0.5242248
-0.4844741	i h o	-3.81139
-2.23124	i h r	-0.2409276
-1.696892	i h s	1.178694
-2.469714	i h t	-1.585532
-1.854611	i h u	-1.636317
-1.653447	k h a	-0.5278805
-1.545616	k h i	-0.8630583
-0.5678927	k h m	-1.678882
-0.223397	k h o	-2.027825
-1.743483	k h u	-0.3829871
-1.218257	k h z	1.007179
-2.313305	l h a	-1.178204
-1.352675	l h e	-1.578996
-1.866147	l h i	-1.624839
-2.865587	l h l	0.7134853
-0.02894914	l h o	-3.417058
-0.393784	m h o	-1.326026
-0.2388821	m h z	0.7710894
-0.3689763	n h a	-2.232072
-0.8826144	n h e	-1.940801
-1.337459	n h i	-1.61604
-0.7781513	n h o	-1.961965
-0.653962	n h r	-0.6713969
-2.234296	n h u	-0.3829871
-2.233692	o h a	-1.050236
-2.180986	o h e	-1.940686
-0.9479895	o h i	-3.040014
-3.122994	o h l	-0.9464697
-0.06324094	o h o	-3.7978
-2.096665	o h r	-0.3180935
-3.705886	o h s	3.036635
-2.946902	o h t	-1.103612
-3.705886	o h u	-0.08568805
-0.3598967	p h </s>
-1.30719	p h e	-1.156783
-0.2919503	p h o	-2.16243
-1.213092	r h a	-2.395434
-2.10297	r h e	-2.394088
-0.289307	r h i	-3.474865
-3.905672	r h l	0.7134853
-2.672149	r h o	-1.944127
-1.191224	r h s	0.2276273
-0.4552506	r h u	-3.427878
-0.7974564	s h a	-1.627297
-0.7419391	s h e	-1.689454
-0.285573	s h i	-2.148151
-0.8611255	s h o	-1.39358
-0.09691001	t h a	-1.359855
-0.7741306	t h e	-0.8086318
-0.01591707	u h a	-2.922234
-1.816241	u h i	-1.022441
-1.883188	u h s	2.45214
-2.16711	u h u	-0.3860516
-0.003760149	v h o	-2.020919
-0.0009349723	w h </s>
-5.344991	<s> i b	-1.215991
-2.070231	<s> i d	-4.306275
-1.093807	<s> i e	-4.24826
-2.976906	<s> i g	-3.43074
-5.188205	<s> i h	-1.530004
-4.322904	<s> i j	-1.289669
-2.419926	<s> i k	-3.967888
-1.698937	<s> i l	-4.655415
-2.632012	<s> i m	-3.892011
-1.669591	<s> i n	-4.109837
-5.627538	<s> i p	-1.090393
-0.1090383	<s> i r	-3.247069
-3.355116	<s> i s	-3.394507
-2.100606	<s> i t	-3.345784
-2.92482	<s> i v	-2.513626
-1.126487	<s> i z	0.1750364
-0.2980221	a i </s>
-4.710681	a i a	-1.790072
-3.092464	a i b	-1.63445
-2.515272	a i c	-3.739252
-1.147692	a i d	-1.365942
-2.778961	a i e	-3.700101
-3.38713	a i f	-2.766671
-1.900145	a i g	-3.218617
-2.319347	a i j	-3.198977
-1.052596	a i k	-3.211267
-2.305241	a i l	-3.967243
-1.779839	a i m	-4.513105
-1.645119	a i n	-4.289021
-6.025951	a i o	-0.5489615
-2.657974	a i p	-3.284112
-1.238822	a i r	-5.351883
-0.9362358	a i s	-2.949391
-1.632528	a i t	-3.802874
-2.229794	a i v	-3.265268
-1.191671	a i z	0.1429305
-0.611977	b i </s>
-3.229929	b i a	-2.620666
-5.00808	b i b	-0.9540013
-2.852365	b i c	-2.758485
-4.133019	b i d	-1.728014
-1.065118	b i e	-4.081558
-4.248413	b i f	-0.8386011
-5.590973	b i g	-0.4856349
-5.287361	b i h	-0.8188833
-0.3464949	b i j	-2.64385
-2.235026	b i k	-2.784753
-1.003399	b i l	-4.500258
-3.064215	b i m	-2.709156
-1.351001	b i n	-4.076984
-2.817749	b i o	-2.293088
-5.287361	b i p	-0.7158139
-1.81656	b i r	-4.163435
-1.939941	b i s	-2.30415
-2.584425	b i t	-1.747733
-4.568748	b i v	-1.21284
-1.446666	b i z	-4.3183
-1.335865	c i </s>
-3.118275	c i a	-2.427859
-4.089573	c i b	-1.208197
-4.444288	c i c	-1.585871
-3.197996	c i d	-2.668578
-0.962517	c i e	-4.421911
-2.768558	c i f	-3.034672
-3.126444	c i g	-2.38105
-1.273547	c i j	-2.542793
-0.8188263	c i k	-5.00199
-1.884192	c i l	-3.517645
-2.543921	c i m	-2.749539
-1.411499	c i n	-3.982925
-2.02949	c i o	-3.903868
-1.721178	c i p	-3.528281
-1.849198	c i r	-4.174507
-0.9672579	c i s	-3.390707
-0.3687321	c i t	-4.426265
-2.523698	c i v	-3.30116
-5.228812	c i z	-0.9626051
-0.6141823	d i </s>
-1.979067	d i a	-2.144321
-2.14465	d i b	-3.536458
-3.365124	d i c	-2.228382
-3.115164	d i d	-2.63967
-0.3528795	d i e	-4.37505
-3.452568	d i f	-1.875851
-3.594518	d i g	-2.037657
-3.958041	d i h	-1.238098
-4.97923	d i i	-0.7579479
-1.586687	d i j	-1.675437
-1.792556	d i k	-3.305385
-2.312478	d i l	-3.178296
-2.205444	d i m	-3.364872
-1.330114	d i n	-4.019425
-1.268785	d i o	-1.295974
-2.357405	d i p	-3.241597
-2.045111	d i r	-3.836472
-1.309507	d i s	-3.867789
-2.246635	d i t	-3.060387
-1.164625	d i v	0.2234788
-2.486295	d i z	-3.833593
-2.019141	e i </s>
-4.791765	e i a	-1.246004
-2.768391	e i b	-2.087551
-0.9288902	e i c	-1.28303
-0.8750912	e i d	-2.996068
-0.9642512	e i e	-3.998904
-2.747594	e i f	-1.982278
-1.494945	e i g	-3.691282
-3.236173	e i h	-2.72631
-3.073312	e i j	-0.353153
-0.551201	e i k	-4.576842
-2.738461	e i l	-2.45456
-1.569998	e i m	-4.037506
-2.311927	e i n	-1.761475
-3.066526	e i p	-2.539313
-1.542106	e i r	-4.41732
-1.825955	e i s	-2.365401
-1.555494	e i t	-2.617899
-2.766941	e i v	-3.108119
-0.6880336	e i z	0.1166978
-0.6957996	f i </s>
-2.224423	f i a	-2.531384
-2.934419	f i b	-1.846225
-1.629068	f i c	-2.850131
-3.549068	f i d	-1.168253
-1.875885	f i e	-2.688154
-3.575397	f i g	-1.185569
-0.9232717	f i j	-2.759342
-1.316521	f i k	-2.973253
-0.5694931	f i l	-4.028818
-4.155708	f i m	-0.8104008
-1.372466	f i n	-3.055445
-1.818571	f i o	-2.937747
-1.050596	f i r	-3.691951
-1.47697	f i s	-2.741823
-2.300951	f i t	-2.317752
-0.8794779	f i z	-3.816005
-0.09455542	g i </s>
-4.086227	g i b	-1.161499
-2.723153	g i d	-2.178878
-0.7586643	g i e	-4.014466
-2.345301	g i g	-2.672043
-2.768463	g i j	-1.281596
-3.039231	g i l	-2.187662
-2.050226	g i n	-3.190998
-4.056264	g i r	-1.32735
-2.832682	g i s	-2.299196
-2.762534	g i t	-1.690407
-4.527132	g i z	-0.8210611
-0.6702701	h i </s>
-1.282705	h i a	-3.23376
-2.315821	h i b	-1.416425
-1.73504	h i d	-2.538073
-0.7178146	h i e	-3.69031
-3.954463	h i f
-2.814844	h i g	-1.744296
-3.954463	h i h	-0.8265968
-1.323724	h i j	-2.106277
-3.163299	h i k	-1.191327
-1.920261	h i l	-2.602194
-1.182248	h i m	-3.150016
-1.513066	h i n	-2.885802
-2.897031	h i o	-1.680885
-1.776869	h i p	-2.610476
-2.600549	h i r	-1.978279
-0.9741544	h i s	-3.502008
-0.6299083	h i t	-3.915192
-0.4393327	i i e	-0.9912196
-0.6371991	i i s	-0.795685
-0.4393327	i i z	-0.9491667
-0.6573741	j i </s>
-0.274153	j i e	-4.497581
-2.266016	j i n	-2.522037
-0.615235	j i s	-4.427648
-4.648673	j i t	-0.8215592
-0.1310735	k i </s>
-4.056981	k i a	-1.451892
-3.693304	k i b	-1.807458
-3.748527	k i c	-1.529558
-4.405436	k i d	-1.088812
-0.6417658	k i e	-4.554052
-4.104406	k i h	-1.258903
-2.643161	k i j	-1.689623
-4.072221	k i k	-1.462392
-1.950943	k i l	-3.505027
-3.299271	k i m	-2.184546
-1.909891	k i n	-2.666423
-2.726987	k i o	-2.350902
-3.224913	k i p	-2.185731
-2.966711	k i r	-2.776672
-2.920588	k i s	-2.447836
-3.367091	k i t	-1.272117
-3.68687	k i v	-1.758497
-4.616289	k i z	-0.8701539
-0.9886408	l i </s>
-3.624055	l i a	-2.166076
-2.638734	l i b	-1.110097
-1.46993	l i c	-4.377048
-1.873621	l i d	-3.776627
-0.3357499	l i e	-3.641174
-3.238781	l i f	-1.959553
-1.671231	l i g	-3.898366
-4.302704	l i h	-1.835012
-2.141421	l i j	-1.371339
-0.712499	l i k	-4.508773
-3.049851	l i l	-3.122902
-1.506754	l i m	-0.9393191
-1.813449	l i n	-3.140972
-3.954677	l i o	-1.573354
-2.486557	l i p	-3.26861
-3.626664	l i r	-2.717021
-1.141413	l i s	-2.897708
-1.416923	l i t	-3.744093
-3.364613	l i v	-2.051383
-3.001054	l i z	-2.891066
-0.454667	m i </s>
-4.295756	m i a	-1.650816
-3.690848	m i c	-1.938926
-2.909398	m i d	-3.06359
-0.7220726	m i e	-4.158214
-1.83971	m i g	-2.975271
-3.359666	m i h	-2.473437
-4.834147	m i i	-0.8211058
-1.671501	m i j	-1.052094
-1.571265	m i k	-3.802198
-0.9920545	m i l	-3.67716
-4.018208	m i m	-1.764325
-0.9157118	m i n	-2.942747
-3.792754	m i o	-1.534734
-4.97245	m i p	-1.099202
-1.1814	m i r	-4.646824
-1.168012	m i s	-2.76491
-1.456891	m i t	-1.764465
-2.591786	m i z	-3.262089
-0.4166031	n i </s>
-2.821044	n i a	-2.793319
-3.321748	n i b	-1.721727
-2.326329	n i c	-2.607671
-3.696564	n i d	-1.724164
-0.4467761	n i e	-3.030884
-3.01208	n i f	-2.741993
-2.983576	n i g	-2.210823
-3.340569	n i h	-2.327889
-2.044425	n i j	-1.292416
-1.670306	n i k	-3.380163
-2.277457	n i l	-3.583148
-1.7929	n i m	-3.850605
-2.698868	n i n	-2.530434
-2.988949	n i o	-2.886344
-3.661272	n i p	-2.323621
-2.843014	n i r	-3.097101
-0.7278987	n i s	-3.330424
-2.730982	n i t	-2.210245
-4.194875	n i v	-1.628862
-2.346994	n i z	-3.47566
-0.6577418	o i </s>
-3.520079	o i c	-0.5366154
-3.064708	o i d	-1.056628
-0.4534269	o i e	-3.637664
-2.268827	o i j	-1.878383
-1.327647	o i k	-2.204274
-0.7136524	o i l	-2.933774
-3.240799	o i m	-0.9444029
-2.161618	o i n	-1.96689
-1.472716	o i r	-2.633104
-0.882388	o i s	-2.675967
-2.531105	o i t	-1.027347
-2.230075	o i z	-1.847811
-1.653252	p i </s>
-3.451402	p i a	-2.273662
-2.997935	p i c	-2.051294
-2.888837	p i d	-2.974113
-0.1875625	p i e	0.155571
-3.015167	p i g	-2.420436
-2.561836	p i j	-2.403051
-2.56807	p i k	-2.512405
-0.977976	p i l	-4.709852
-3.506228	p i m	-2.374058
-1.703193	p i n	-2.344332
-3.048573	p i o	-2.92102
-3.083258	p i p	-2.773097
-0.7480805	p i r	-5.26338
-1.91513	p i s	-3.028529
-3.05276	p i t	-1.981978
-3.138821	p i z	-2.956469
-0.4606871	r i </s>
-2.010957	r i a	-3.550189
-1.233676	r i b	-2.628677
-3.281344	r i c	-1.572704
-2.242022	r i d	-2.443514
-0.4156198	r i e	-4.164723
-2.462698	r i f	-2.38934
-2.894101	r i g	-2.394612
-3.494648	r i h	-1.49267
-1.638877	r i j	-1.363979
-2.133296	r i k	-3.151002
-2.683798	r i l	-3.084928
-1.851352	r i m	-3.451937
-1.616249	r i n	-3.045731
-1.645193	r i o	-2.836787
-2.44795	r i p	-3.162909
-1.193518	r i s	-2.80938
-1.554226	r i t	-3.544934
-3.650909	r i u	-1.400416
-4.677702	r i v	-1.364136
-2.900429	r i z	-3.003253
-0.2546781	s i </s>
-3.589937	s i a	-2.199246
-4.302538	s i b	-1.643427
-3.762989	s i c	-2.207669
-3.198387	s i d	-2.650078
-0.6186768	s i e	-4.54913
-3.566199	s i f	-2.402029
-3.383232	s i g	-2.709944
-2.162021	s i h	-3.017481
-1.527387	s i j	-1.993504
-2.805328	s i k	-2.840304
-1.683006	s i l	-4.018394
-1.25213	s i m	-4.089559
-1.936725	s i n	-3.0744
-3.461959	s i o	-2.72564
-3.024116	s i p	-2.614874
-1.868919	s i r	-4.351565
-1.393719	s i s	-4.186491
-1.70975	s i t	-3.088371
-4.743447	s i u	-1.384024
-3.937267	s i z	-2.24517
-0.5364075	t i </s>
-4.590284	t i a	-1.687665
-3.969853	t i b	-1.316367
-2.082495	t i c	-2.869196
-4.011631	t i d	-2.231926
-0.4853022	t i e	-3.224706
-4.826672	t i f	-1.496386
-3.486776	t i g	-1.634653
-3.840758	t i h	-1.55758
-6.178572	t i i	-0.3331541
-1.554139	t i j	-1.830176
-0.6048118	t i k	-3.233162
-2.187333	t i l	-2.770359
-2.387641	t i m	-3.447386
-1.897242	t i n	-2.638057
-3.847491	t i o	-2.558141
-1.928285	t i p	-3.275082
-2.107428	t i r	-4.349938
-1.290016	t i s	-3.364834
-2.935169	t i t	-2.731254
-4.530286	t i v	-1.506726
-2.893141	t i z	-3.623018
-0.7000822	u i </s>
-2.312975	u i c	-1.701094
-2.514417	u i d	-1.708639
-2.460898	u i e	-1.773748
-0.4001453	u i k	-3.271068
-1.981684	u i l	-2.289911
-2.380669	u i n	-1.419663
-0.5319234	u i s	-2.981487
-1.083845	u i t	-2.3229
-3.594523	u i z	-0.8203869
-1.259219	v i </s>
-4.193139	v i a	-1.897405
-3.754464	v i b	-2.81451
-3.228761	v i c	-1.986464
-2.000107	v i d	-2.760738
-0.595613	v i e	-4.417115
-4.361162	v i g	-1.567562
-5.67026	v i h	-0.7817815
-1.35286	v i j	-2.671524
-3.397548	v i k	-2.392897
-1.680015	v i l	-3.187067
-3.598378	v i m	-2.808085
-2.517131	v i n	-2.973236
-3.633332	v i o	-1.920564
-5.949541	v i p	-0.8031973
-1.785266	v i r	-4.853437
-0.2270409	v i s	-3.290411
-3.261596	v i t	-2.279939
-3.737026	v i v	-1.963208
-2.942515	v i z	-3.408036
-0.0003704004	w i n	-3.059231
-0.5714621	z i </s>
-2.781863	z i a	-3.063217
-2.762435	z i b	-1.298225
-1.034297	z i d	-4.424134
-0.6489509	z i e	-4.636137
-4.966555	z i f	-0.7976367
-3.634116	z i g	-2.063963
-2.363004	z i j	-0.8865647
-2.617034	z i k	-2.755043
-1.975107	z i l	-3.98683
-1.32738	z i m	-3.779086
-0.5523023	z i n	-4.295801
-3.206887	z i o	-2.038015
-1.571644	z i r	-4.250748
-1.521204	z i s	-3.581755
-3.641758	z i t	-1.467179
-2.071063	z i v	-3.533007
-3.539231	z i z	-2.282053
-0.1619463	<s> j a	-3.610603
-1.471211	<s> j e	-4.097969
-5.656786	<s> j i	-0.8267381
-0.7378619	<s> j o	-3.100682
-1.024113	<s> j u	-5.051181
-0.2336026	a j a	-3.279051
-4.275818	a j c	0.3424226
-3.015406	a j e	-2.312738
-0.6175544	a j i	-4.18915
-4.217826	a j n	2.339744
-0.8458351	a j o	-3.707365
-2.414198	a j s	-0.4767454
-1.564915	a j u	-2.307882
-1.053494	b j </s>
-0.2949258	b j a	-3.759162
-3.633533	b j d	-0.2183477
-0.4927181	b j e	-3.671112
-1.673011	b j i	-1.97987
-1.556639	b j o	-2.618188
-3.937145	b j t	-0.4533204
-1.474154	b j u	-2.406447
-0.8103359	d j a	-1.142919
-1.30047	d j o	-0.7814138
-0.1047354	d j u	-1.820482
-0.8163174	e j </s>
-0.4955074	e j a	-3.557668
-2.018312	e j b	-1.356361
-4.362459	e j c	0.5642714
-3.566579	e j d	-1.094519
-3.885338	e j g	-0.8985424
-0.9578604	e j i	0.2662601
-3.256949	e j k	-1.687612
-3.517361	e j l	-0.8972041
-1.901373	e j n	0.2058291
-1.011702	e j o	-4.281838
-4.061429	e j p	-0.6071997
-4.265549	e j r	-1.008899
-1.415577	e j s	-0.5141258
-4.47029	e j t	-0.2802331
-0.5926571	e j u	-3.533008
-2.557979	e j v	0.006238699
-4.362459	e j z	-0.638972
-0.006160309	f j o	-1.849967
-0.7549214	g j </s>
-0.08980967	g j o	-1.829727
-1.199982	i j </s>
-0.21369	i j a	-5.007458
-4.694685	i j b	-1.251128
-4.925134	i j c	0.4771212
-4.779006	i j d	-1.129219
-3.292676	i j e	-2.480497
-1.304009	i j i	-2.357007
-5.301324	i j j	-0.02791548
-4.271921	i j k	0.5930767
-5.022044	i j l	-0.897204
-4.477975	i j m	1.201303
-2.78778	i j n	0.4325221
-2.253221	i j o	-3.583929
-4.217564	i j r	-0.9943597
-2.023022	i j s	-1.30662
-0.5877043	i j u	-4.012979
-4.694685	i j v	-1.230929
-4.624104	i j z	0.1691427
-0.07516063	j j o	-0.7814138
-0.07292771	k j a	-0.8297918
-0.5879446	l j a	-3.359318
-2.610141	l j e	-2.054099
-4.494063	l j i	-0.4214861
-0.1314392	l j o	-4.630884
-4.494063	l j s	2.00198
-3.452533	l j u	-0.3910524
-1.338669	m j </s>
-1.214005	m j a	-2.379829
-0.4337012	m j e	-4.303458
-0.8884707	m j i	-3.394737
-1.886609	m j o	-2.296417
-0.4174829	m j u	-3.146423
-0.3133966	n j a	-2.700809
-0.9137298	n j e	-1.998241
-0.4131274	n j o	-2.626441
-2.308877	n j u	-0.8292553
-0.3840699	o j a	-3.892168
-1.275543	o j e	-4.169866
-4.915417	o j f	-0.02791548
-0.9822491	o j i	-2.292888
-4.363135	o j n	2.366073
-1.032654	o j o	-4.412475
-2.448969	o j s	-0.5591819
-0.4769682	o j u	-3.780832
-0.9680913	p j </s>
-0.6013616	p j a	-2.48197
-2.640702	p j e	-1.788428
-2.829028	p j g	0.2218487
-0.8803356	p j i	-2.88731
-1.755048	p j m	-1.256423
-0.5312362	p j o	-2.938746
-0.7112833	p j u	-2.113977
-3.749287	p j v	0.3940138
-1.717586	r j a	-2.073561
-0.008885723	r j e	-3.745487
-3.013153	r j u	-0.9536855
-0.5345645	s j a	-1.445872
-0.8489584	s j e	-1.078818
-1.575957	s j i	-0.4940973
-0.3903206	s j o	-1.697113
-0.9069504	s j u	-0.381026
-2.252173	t j </s>
-0.04556313	t j a	-3.820822
-3.327334	t j e	-0.6751171
-1.558446	t j o	-2.279638
-1.181766	t j u	-2.828808
-0.7255653	u j </s>
-0.4691335	u j a	-3.695007
-3.861826	u j b	-0.8285799
-2.923597	u j e	-1.643164
-0.5667894	u j i	-3.385112
-2.826687	u j k	-1.523477
-3.336601	u j m	1.280651
-1.405083	u j o	-2.374218
-3.943241	u j p	-0.7296977
-3.186839	u j s	1.133489
-3.943241	u j t	-0.1899257
-0.8022016	u j u	-2.433692
-1.243146	v j a	-2.594086
-1.751662	v j e	-2.396596
-0.8778821	v j i	-2.664624
-2.094783	v j o	-2.011571
-0.1054438	v j u	-3.664974
-3.827664	v j z	-0.268536
-0.3767037	z j a	-3.163174
-0.984482	z j o	-2.7293
-0.3222769	z j u	-3.143658
-0.3094353	<s> k a	-4.660269
-4.115389	<s> k b	-1.590862
-3.745233	<s> k e	-2.551007
-3.103027	<s> k g	-2.140483
-4.600224	<s> k h	-1.798579
-2.64775	<s> k i	-3.907418
-1.726498	<s> k l	-3.335015
-2.484238	<s> k m	-3.870136
-2.862416	<s> k n	-2.800829
-0.7145616	<s> k o	-1.03814
-1.001899	<s> k r	-0.6162906
-3.924269	<s> k s	-2.597755
-0.7228617	<s> k u	-4.845713
-3.081569	<s> k v	0.716064
-4.080157	<s> k w	0
-1.066226	a k </s>
-0.6263481	a k a	-3.681158
-1.806874	a k c	-1.034275
-3.413715	a k d	-2.024681
-2.632089	a k e	-3.079413
-5.031763	a k g	-0.9456622
-5.311043	a k h	-0.8169934
-1.287695	a k i	-3.108248
-5.031763	a k k	0.105544
-1.784281	a k l	-0.09159088
-2.332901	a k m	-3.435994
-2.393149	a k n	-0.3585734
-1.337629	a k o	-2.5923
-2.49552	a k r	1.709527
-0.4952991	a k s	-4.396402
-0.9317198	a k t	-0.9835496
-1.015555	a k u	-2.911472
-3.417657	a k v	-1.374014
-1.229878	b k a	-3.090292
-1.141926	b k o	-2.87382
-0.06100715	b k u	-4.158228
-0.03094207	c k a	-2.645202
-1.463644	c k o	-1.226935
-1.837602	c k r	-0.8053561
-1.919016	c k u	-0.7043163
-0.9576073	d k a	-2.168783
-2.333798	d k l	-0.6555989
-0.06273763	d k o	-2.836243
-2.333798	d k r	-0.01284468
-1.843664	d k u	-0.8412247
-0.6248688	e k </s>
-0.6151361	e k a	-2.688547
-5.449399	e k b	-0.8211607
-2.490804	e k c	-2.49715
-2.79036	e k d	-2.657535
-2.762303	e k e	-3.063557
-4.658235	e k f	-1.300595
-5.170119	e k g	-0.9456622
-1.174193	e k i	-2.717858
-3.835163	e k k	-2.201671
-1.738735	e k l	-0.462584
-2.151314	e k m	-3.516914
-2.106504	e k n	0.3952284
-0.8597094	e k o	-3.415681
-4.260295	e k p	0.6298145
-1.968687	e k r	0.4725509
-0.927891	e k s	-0.6995897
-1.181253	e k t	-1.752627
-1.106284	e k u	-2.32436
-2.661252	e k v	0.6634665
-5.228111	e k z	-0.8521122
-0.07516063	f k o	-0.8190565
-0.748188	g k a	-1.301739
-0.1096988	g k o	-2.019371
-1.425409	g k u	-0.8189938
-1.042292	i k </s>
-0.395714	i k a	-4.611481
-4.832101	i k b	-1.423769
-3.541272	i k c	0.3549731
-2.882886	i k d	-2.775479
-3.065211	i k e	-3.09432
-4.6772	i k g	-1.604203
-5.04881	i k h	-0.950488
-1.878083	i k i	-2.650252
-5.574036	i k j	-0.01896685
-2.322419	i k k	0.01084471
-2.213792	i k l	-0.006234646
-2.468221	i k m	-3.457364
-2.711528	i k n	-0.3846135
-1.646792	i k o	-3.121422
-2.182141	i k p	-2.039903
-2.504378	i k r	1.522086
-0.9559147	i k s	-2.519783
-0.6982423	i k t	-3.317856
-0.8944333	i k u	-5.184587
-2.350403	i k v	-3.28551
-0.2781123	j k a	-2.019092
-0.3936822	j k o	-2.027429
-1.193553	j k u	-0.80904
-1.067368	k k a	-2.849049
-0.03959543	k k o	-3.328239
-2.853792	k k u	-0.8412247
-1.101547	l k </s>
-0.8103864	l k a	-3.425206
-4.06041	l k c	-0.178479
-2.725454	l k d	-1.917092
-3.383716	l k e	-1.460763
-3.733051	l k g	-1.243212
-1.331752	l k i	-1.957517
-2.42317	l k l	-2.377362
-3.065873	l k m	-1.806279
-3.817372	l k n	-1.02221
-0.7090725	l k o	-3.194344
-1.481341	l k r	-2.221217
-0.6816486	l k s	-3.533672
-0.8477895	l k t	-2.278154
-0.8952768	l k u	-3.791655
-2.196344	l k v	-1.933004
-1.092583	m k a	-2.146343
-0.4406092	m k l	-2.549837
-0.6807616	m k o	-2.414963
-0.4942506	m k r	-1.4799
-1.569704	m k u	-1.348899
-0.8520594	n k a	-3.456237
-1.64468	n k c	-2.308004
-2.976941	n k d	-1.73724
-2.451782	n k e	-2.408432
-3.194997	n k f	-1.46135
-1.256274	n k i	-1.502507
-3.732816	n k l	-0.8843713
-2.788333	n k n	-1.98593
-1.330812	n k o	-2.57079
-1.175971	n k r	-2.805308
-1.686906	n k s	-2.448541
-0.6851321	n k t	-3.218439
-0.3632011	n k u	-3.041333
-3.255695	n k v	-1.2848
-1.940967	o k </s>
-0.5995882	o k a	-3.189155
-4.218194	o k b	-1.225303
-4.394285	o k c	0.1270964
-2.672063	o k d	-2.302883
-1.173491	o k e	-2.986629
-4.673566	o k f	-0.8080888
-3.4713	o k g	-1.820448
-3.074659	o k h	-1.829682
-1.59117	o k i	-2.056894
-3.729174	o k k	-0.519997
-1.011616	o k l	-2.68934
-4.394285	o k m	-0.9538245
-2.545327	o k n	-1.176705
-1.283359	o k o	-1.44492
-3.352893	o k p	-1.997306
-1.729526	o k r	1.081237
-1.203289	o k s	-3.165872
-1.712592	o k t	-3.224678
-0.4137252	o k u	-2.710614
-2.800446	o k v	-1.353811
-4.121284	o k z	-0.7454822
-0.2332254	p k a	-2.737902
-4.087669	p k i	0.05471021
-1.289602	p k l	-1.84569
-1.982985	p k n	-1.753566
-0.8489181	p k o	-3.719302
-1.560911	p k r	-1.169956
-4.087669	p k s	-0.3066984
-0.7438831	p k u	-2.944514
-2.382561	p k v	-1.528854
-0.6387345	r k a	-3.882242
-2.587121	r k d	-2.150759
-2.814365	r k e	-2.024611
-1.557177	r k i	-1.752844
-2.1408	r k l	0.7910929
-1.690476	r k n	-3.156184
-1.324199	r k o	-1.988456
-3.426409	r k r	-0.4559002
-0.6253725	r k s	-3.464844
-0.5345476	r k t	-2.61966
-0.8728648	r k u	-2.614973
-0.2323426	s k a	-3.620505
-5.250342	s k d	-0.8262479
-2.233571	s k e	-3.399471
-0.7494128	s k i	-3.341798
-3.149057	s k l	-2.395911
-4.595398	s k n	-1.093041
-0.9791272	s k o	-2.21132
-5.250342	s k p	1.165233
-1.627727	s k r	0.4026165
-1.623829	s k s	-4.027596
-1.111496	s k u	-3.087721
-4.38279	s k v	-0.8251235
-1.016626	t k a	-1.962209
-2.813934	t k i	-0.1260705
-1.355074	t k l	-1.717881
-2.172227	t k n	-1.503147
-1.038559	t k o	-3.285637
-0.1367029	t k r	0.4404097
-2.589538	t k s	-1.540678
-1.658777	t k u	-1.885066
-2.273531	t k v	-1.39552
-1.168169	u k a	-3.440019
-1.797214	u k c	-0.564831
-2.375798	u k d	-2.883532
-4.97858	u k e	-0.5998325
-4.831892	u k g	-0.8181675
-1.120284	u k i	-2.68552
-4.414309	u k k	-0.01939464
-1.9642	u k l	0.2141428
-3.376521	u k m	-1.918409
-3.656361	u k n	-0.8606987
-1.322291	u k o	-3.062684
-2.028378	u k r	-2.028606
-0.7969562	u k s	-1.53192
-0.4387563	u k t	-2.359169
-0.6130365	u k u	-3.602682
-3.978581	u k v	-0.9908319
-0.5864836	v k a	-2.54133
-2.308412	v k i	-0.8045841
-0.1436343	v k o	-3.099962
-1.773299	v k u	-1.317527
-0.6319604	z k a	-3.204438
-0.5877416	z k l	-2.43504
-1.389232	z k n	-1.949688
-0.8273675	z k o	-2.638577
-0.7201483	z k r	-2.104871
-0.9385857	z k u	-2.883488
-1.889027	z k v	-1.613005
-0.1858445	<s> l a	-4.303322
-1.728373	<s> l e	-4.16408
-0.5713041	<s> l i	-4.469622
-1.460449	<s> l o	-3.823975
-2.630213	<s> l p	-3.657095
-1.766739	<s> l s	-4.486119
-2.347723	<s> l u	-3.820083
-2.599296	<s> l v	-3.70499
-5.689224	a l </s>
-1.210735	a l a	-1.829137
-2.816097	a l b	-0.7942774
-3.401423	a l c	-1.238993
-1.196678	a l d	-2.682424
-1.999531	a l e	-3.229111
-2.787948	a l f	-1.240811
-1.331988	a l g	-3.11776
-1.01908	a l i	-2.068587
-3.139812	a l j	-0.5308549
-1.813006	a l k	-3.903868
-2.452603	a l l	-1.260849
-2.378814	a l m	-1.04233
-2.055117	a l n	-2.71715
-1.005127	a l o	-2.241238
-1.663209	a l p	-3.693124
-4.367005	a l r	0.1967062
-0.3386971	a l s	-2.417266
-1.589624	a l t	-1.695517
-1.570882	a l u	-3.721256
-1.263674	a l v	-3.651335
-3.543096	a l z	-2.249409
-0.4991226	b l a	-3.330127
-1.293207	b l e	-3.1169
-0.2827376	b l i	-3.287883
-1.066274	b l o	-3.461744
-2.180824	b l s	-2.364486
-1.738772	b l u	-2.119454
-0.6686189	c l a	-1.482296
-0.2794528	c l e	-2.264604
-0.5894376	c l i	-1.651803
-0.1362197	d l a	-2.630178
-1.829947	d l e	-1.348974
-1.159701	d l i	-1.527477
-0.7478797	d l o	-2.882535
-2.227887	d l u	-0.8095428
-2.675072	e l </s>
-0.7710493	e l a	-1.831158
-4.422247	e l b	-0.6662552
-2.554549	e l c	-1.20919
-2.118675	e l d	-2.418347
-1.210199	e l e	-3.207613
-1.501806	e l f	-1.652709
-2.144987	e l g	-0.8999083
-4.461756	e l h	-1.316471
-0.7368404	e l i	-3.409267
-3.533555	e l j	-2.121666
-1.573148	e l k	-2.668039
-1.955895	e l l	-1.375224
-2.691605	e l m	0.2030253
-1.212732	e l n	-2.421693
-1.308536	e l o	-3.291784
-1.858508	e l p	-3.045486
-5.463778	e l r	-0.5264325
-1.224116	e l s	-1.580045
-0.7167851	e l t	-2.086016
-0.9950222	e l u	-3.485531
-2.026959	e l v	-2.561411
-2.106368	e l z	-1.4258
-1.386872	f l a	-2.447999
-1.186718	f l e	-2.550169
-0.1616565	f l i	-3.18177
-0.770444	f l o	-2.931633
-1.456989	f l u	-2.370166
-0.8744186	g l a	-3.384433
-1.203883	g l e	-3.043036
-0.2396745	g l i	-3.424927
-0.9061095	g l o	-3.268746
-3.850654	g l p	-0.9040846
-1.884512	g l s	-2.793395
-1.042274	g l u	-2.582901
-2.030367	h l a	-0.8203825
-1.751087	h l e	-0.9541892
-0.01270243	h l o	-2.63999
-1.918409	i l </s>
-1.513229	i l a	-3.719604
-3.038744	i l b	0.4009185
-1.785271	i l c	-3.122406
-0.8296177	i l d	-1.015294
-1.836441	i l e	-3.430165
-3.708857	i l f	-2.01035
-0.7374196	i l g	0.2095571
-3.510102	i l h	-2.349367
-1.172299	i l i	-2.74275
-0.9531114	i l j	-1.489232
-1.135022	i l k	-3.784173
-2.247664	i l l	-1.057543
-1.779712	i l m	-2.558925
-1.145471	i l n	-2.577192
-1.472315	i l o	-3.056432
-1.859076	i l p	-2.866234
-1.030111	i l s	-1.583309
-1.134464	i l t	-3.179251
-1.815868	i l u	-2.857158
-2.728691	i l v	-2.322549
-1.777708	i l z	-1.639929
-0.39794	j l a	-1.428397
-0.3357921	j l e	-1.482729
-0.9098234	j l i	-0.937287
-0.487178	k l a	-3.995677
-4.218856	k l b	-0.9540035
-1.359118	k l e	-3.049395
-0.3825885	k l i	-3.860712
-1.652615	k l o	-3.178574
-3.968979	k l p	-1.200459
-1.510058	k l s	-3.586712
-0.7882975	k l u	-3.114007
-4.695978	k l v	-0.4769386
-0.9363712	l l a	-2.092293
-4.013592	l l c	0.3424318
-3.4307	l l d	-0.8720149
-0.5156959	l l e	-3.64639
-0.3489475	l l i	-2.753949
-1.267464	l l o	-2.911478
-3.379547	l l p	-0.949842
-1.705401	l l s	-1.73812
-2.652549	l l t	-0.8765645
-1.265975	l l u	-2.199637
-3.4307	l l v	-0.6951846
-1.131193	m l </s>
-1.619173	m l a	-1.416194
-1.080637	m l e	-2.407775
-0.09816702	m l i	-3.057349
-1.677951	m l o	-1.834152
-0.01689092	n l a	-3.165554
-2.742709	n l e	-0.7965619
-1.89163	n l i	-1.287421
-1.662603	n l o	-1.779039
-2.824123	n l u	-0.8101778
-0.833249	o l a	-2.034485
-3.193877	o l b	-1.600746
-3.940181	o l c	-0.6159879
-2.387919	o l d	-1.600554
-1.339373	o l e	-3.26182
-2.501567	o l f	-0.5769455
-2.124443	o l g	-2.423692
-1.998248	o l h	-2.270054
-0.2509263	o l i	-2.262802
-4.312567	o l j	-1.175024
-2.520676	o l k	-2.669367
-2.720708	o l l	-0.3968782
-3.07488	o l m	-0.7706527
-1.728964	o l n	-3.386904
-1.110839	o l o	-2.13999
-2.648463	o l p	-2.101732
-3.450095	o l r	-1.731487
-1.579026	o l s	-3.078206
-3.028943	o l t	-1.705354
-1.089591	o l u	-3.528657
-2.129297	o l v	-2.938452
-4.043722	o l z	-1.447519
-0.502086	p l a	-3.586007
-0.6900548	p l e	-3.718217
-0.5275942	p l i	-3.18068
-3.995997	p l k	-0.9396641
-0.9806896	p l o	-3.154903
-2.511697	p l s	-2.312743
-1.115541	p l u	-2.405878
-0.07464216	r l a	-3.245942
-2.271842	r l e	-1.399056
-1.159868	r l i	-2.536233
-1.557808	r l o	-2.164687
-1.460898	r l s	-2.267969
-1.679469	r l u	-1.452642
-0.7068342	s l a	-1.907666
-1.104199	s l e	-3.473597
-0.2613267	s l i	-3.831192
-1.199268	s l o	-3.371935
-1.380406	s l s	-3.795383
-1.141463	s l u	-3.098476
-0.2152104	t l a	-2.758047
-0.9387534	t l e	-3.752917
-0.6040539	t l i	-2.961108
-1.813789	t l o	-2.912014
-2.418517	t l s	-2.378422
-3.968745	t l t	-0.8911557
-2.126761	t l u	-1.969018
-1.000109	u l a	-3.590912
-0.5102621	u l b	0.0179081
-2.255738	u l c	-2.203609
-1.251701	u l d	-2.600433
-1.12657	u l e	-4.044088
-3.98443	u l f	-1.101025
-1.981005	u l g	-0.172761
-0.7613776	u l i	-3.761234
-3.267731	u l j	-1.516661
-1.352944	u l k	-3.370677
-1.595559	u l l	0.5534759
-1.691989	u l m	-2.083959
-2.543783	u l n	-2.639438
-1.937317	u l o	-2.427064
-2.870486	u l p	-2.283763
-3.237536	u l r	-0.1274478
-1.28053	u l s	-1.563262
-1.210491	u l t	-0.8402662
-1.363383	u l u	-3.176685
-2.180802	u l v	-2.963629
-3.593789	u l z	-1.781976
-0.1052088	v l </s>
-0.6702357	v l a	-2.730126
-2.880941	v l i	-0.9483935
-0.4458501	z l a	-3.840077
-1.304877	z l e	-3.436738
-0.2456065	z l i	-3.734406
-1.906048	z l o	-2.968212
-2.332906	z l s	-2.663939
-2.149234	z l u	-1.953135
-1.794255	<s> m </s>
-0.3175176	<s> m a	-4.716991
-3.073792	<s> m b	-2.887053
-1.016519	<s> m e	-3.959086
-3.736821	<s> m g	-2.274462
-4.579846	<s> m h	-1.117781
-0.7433047	<s> m i	-4.967945
-3.992509	<s> m j	-2.019065
-3.671361	<s> m l	-2.354035
-3.177871	<s> m m	-2.865775
-4.826519	<s> m n	-1.252891
-1.473859	<s> m o	-4.107298
-0.721347	<s> m u	-5.051943
-3.933116	<s> m w	0
-0.2463935	a m </s>
-0.9204342	a m a	-3.689209
-2.538958	a m b	-2.25621
-3.804881	a m d	-1.312983
-1.633284	a m e	-3.70806
-4.366598	a m f	-1.08019
-5.2559	a m g	-0.06666851
-1.141618	a m i	-1.904769
-4.778779	a m k	-1.175191
-4.307731	a m l	-1.819676
-2.023221	a m m	-2.944155
-3.434714	a m n	-1.107754
-1.551117	a m o	-3.758356
-2.138131	a m p	-3.054118
-5.838792	a m r	-0.3671022
-0.8367993	a m s	-2.69197
-4.035138	a m t	-1.470726
-1.678422	a m u	-2.817408
-2.65262	a m v	-1.797383
-3.911016	a m z	-1.592159
-0.07292771	b m e	-0.7978964
-0.1899104	c m </s>
-0.7919704	c m a	-2.402977
-0.7270626	c m e	-2.597494
-2.452362	c m i	-1.20636
-2.87833	c m o	-0.5929149
-0.5441954	d m a	-2.759666
-2.254001	d m e	-1.170039
-0.3108188	d m i	-2.395118
-2.908945	d m o	-0.786989
-0.6611814	d m u	-2.837809
-0.1092179	e m </s>
-1.364499	e m a	-2.970944
-2.291077	e m b	-2.770804
-5.167744	e m c	-0.9076858
-3.222713	e m d	-1.838602
-1.418282	e m e	-3.844604
-4.917866	e m f	-1.530447
-3.135215	e m g	-2.090486
-1.242432	e m i	-1.89296
-1.591748	e m j	0.3588128
-4.135215	e m k	-1.926933
-2.694825	e m l	-2.471385
-3.581657	e m m	-1.187483
-1.851354	e m n	-2.981555
-1.839795	e m o	-2.012903
-2.537316	e m p	-2.617993
-2.322646	e m s	-1.707997
-2.124513	e m t	-2.234837
-2.31364	e m u	-2.407659
-5.801789	e m v	1.150186
-3.115093	e m z	-0.9463885
-0.01772877	f m e	-1.395792
-0.3968759	g m a	-2.560604
-0.3245111	g m e	-2.7056
-1.952696	g m i	-1.227204
-1.499377	g m o	-1.709914
-2.309243	g m s	0.5618175
-1.112589	g m u	-2.022148
-0.5606673	h m a	-1.472124
-0.4202164	h m e	-1.871528
-0.4749552	h m u	-1.515682
-0.5914425	i m </s>
-1.022434	i m a	-3.80701
-1.776442	i m b	-3.263216
-2.204803	i m d	-1.259794
-1.611706	i m e	-2.928141
-3.072342	i m f	-1.099132
-0.8834985	i m i	-3.450823
-3.745758	i m j	-1.16124
-0.9805017	i m n	-1.492652
-1.432493	i m o	-2.716528
-1.649717	i m p	-1.781671
-4.870136	i m r	-0.8208351
-1.330695	i m s	-1.62258
-0.7876206	i m t	0.005855083
-1.0204	i m u	-3.151942
-3.306425	i m z	-2.12501
-0.01926234	j m a	-2.57791
-1.384947	j m e	-1.296437
-0.4094071	k m </s>
-3.016755	k m a	-1.534786
-0.5028717	k m e	-3.42014
-0.5487031	k m i	-3.757453
-2.016755	k m j	-2.269274
-3.493876	k m s	0.599606
-2.574798	k m u	-1.884487
-0.3242592	l m a	-3.601759
-1.679157	l m e	-2.107893
-3.715264	l m g	-0.8232717
-1.120013	l m i	-2.69282
-2.715824	l m j	-1.036301
-2.941134	l m l	-1.404408
-1.734848	l m o	-2.936615
-1.684897	l m s	-1.01414
-0.4128856	l m u	-3.478183
-3.715264	l m v	-0.8204955
-3.63385	l m z	-0.8272178
-1.501893	m m </s>
-0.3014818	m m a	-3.80372
-3.301807	m m d	-1.09929
-1.971056	m m e	-2.090599
-2.137951	m m i	-2.033722
-3.380989	m m o	-1.226562
-3.339596	m m p	-1.031394
-2.535891	m m s	-0.2102597
-3.757179	m m t	-0.7522703
-0.3501057	m m u	-3.714096
-0.1279207	n m a	-2.237973
-0.9199705	n m e	-1.555575
-1.01424	n m i	-1.506699
-1.827531	n m o	-0.7900535
-1.687656	n m u	-0.610302
-1.108076	o m </s>
-0.6817837	o m a	-4.059352
-2.056098	o m b	-2.41658
-3.407722	o m d	-2.071993
-1.126201	o m e	-2.088989
-2.201142	o m f	-2.369047
-0.6415923	o m i	-1.731694
-1.069299	o m j	-4.051883
-3.297383	o m k	-1.97315
-3.546025	o m l	-2.027977
-4.110296	o m m	-1.087986
-1.784046	o m n	-1.902174
-2.106513	o m o	-2.293772
-1.323752	o m p	-3.394358
-3.2704	o m r	-1.879177
-1.556767	o m s	-1.927126
-4.148085	o m t	-0.6892959
-0.6793149	o m u	-4.21431
-0.5134912	p m a	-3.026446
-0.5336165	p m e	-3.003622
-0.464631	p m i	-3.109493
-2.334677	p m o	-1.528443
-1.276082	p m u	-2.630325
-3.299968	r m </s>
-0.7420835	r m a	-3.951019
-2.038291	r m d	-2.434443
-2.462879	r m e	-2.036928
-2.346849	r m g	-2.071345
-0.9302994	r m i	-3.463199
-2.627012	r m j	-2.277442
-2.466569	r m k	-2.275324
-3.892044	r m m	-1.103732
-0.9160903	r m o	-3.015878
-2.861555	r m p	-2.319169
-3.100928	r m r	-1.886998
-0.3279215	r m s	-2.441958
-4.331377	r m t	-0.879765
-1.074869	r m u	-3.081208
-3.912247	r m v	0.4944764
-3.729317	r m z	-1.642289
-0.4315663	s m a	-4.063834
-1.14127	s m e	-3.682036
-0.6314189	s m i	-3.689162
-2.812239	s m j	-2.478795
-4.977305	s m k	-0.7251639
-1.593068	s m o	-2.955314
-1.410587	s m s	-2.549557
-0.5884374	s m u	-4.470374
-4.805855	s m v	-0.9142876
-0.3797217	t m a	-3.200932
-0.5780594	t m e	-3.274608
-0.8766046	t m i	-2.483805
-0.9737129	t m o	-3.246819
-1.613021	t m s	-0.9643062
-1.258683	t m u	-2.447428
-2.833158	u m </s>
-0.942553	u m a	-4.531864
-2.365232	u m b	-2.518886
-4.411084	u m c	-1.02645
-2.762856	u m d	-2.128889
-1.641826	u m e	-3.597739
-3.467402	u m f	-2.446015
-4.335833	u m g	-0.7380544
-4.657066	u m h	-1.117781
-1.013717	u m i	-4.530748
-1.786467	u m j	-3.759202
-3.215858	u m k	-2.355456
-3.712114	u m l	-1.466204
-2.014413	u m m	-2.606652
-2.518839	u m n	-2.119834
-1.558637	u m o	-3.625724
-2.159544	u m p	-3.000932
-5.659088	u m r	-0.3671022
-0.3434421	u m s	-1.131481
-1.802702	u m t	-1.378672
-0.6500241	u m u	-4.052546
-3.250932	u m v	0.7761362
-3.875482	u m z	-1.553259
-0.01608682	v m a	-1.96187
-1.564271	v m o	-0.5581734
-0.371451	z m a	-3.836019
-0.7392592	z m e	-3.692068
-0.4910918	z m i	-2.930425
-1.829087	z m o	-3.133928
-3.863437	z m s	0.4948707
-1.261127	z m u	-3.141246
-0.6420629	<s> n a	-4.894615
-0.4690166	<s> n e	0.04698229
-2.280449	<s> n i	-4.229857
-0.4768357	<s> n o	-2.214833
-1.02878	<s> n u	-3.909654
-1.664458	a n </s>
-0.8972783	a n a	-4.596756
-3.000907	a n b	-1.269395
-1.693832	a n c	-2.414523
-1.142527	a n d	-2.754902
-2.071764	a n e	-3.140519
-4.208553	a n f	-1.289855
-1.431426	a n g	-2.555226
-3.757367	a n h	-1.798928
-0.6286526	a n i	-3.052734
-3.344971	a n j	-2.315619
-1.166243	a n k	-1.801285
-3.563815	a n m	-1.08984
-2.420908	a n n	-0.5730536
-1.911935	a n o	-2.437288
-4.473371	a n p	-1.203251
-3.640862	a n r	-2.218216
-1.09578	a n s	-2.06743
-0.612901	a n t	-2.271157
-1.167607	a n u	-2.605666
-4.085981	a n v	-1.057207
-3.774401	a n z	-1.728159
-3.040652	b n a	-1.035024
-0.0004946407	b n i	-3.747949
-0.6916708	c n e	-1.035977
-0.1080942	c n i	-1.48
-3.157689	d n a	-0.9931709
-1.870232	d n e	-2.30309
-0.007641605	d n i	-2.937183
-2.873693	d n o	-1.468144
-2.753119	d n s	-0.6670777
-3.951435	d n u	0.6529706
-1.159465	e n </s>
-0.7076877	e n a	-5.08709
-4.499384	e n b	-0.9350359
-1.858087	e n c	-2.203757
-1.503301	e n d	-2.486977
-1.396859	e n e	-4.687222
-4.810174	e n f	-1.327435
-3.575105	e n g	-1.541517
-5.832399	e n h	-0.4684514
-1.170032	e n i	-2.933605
-4.381745	e n j	-0.884625
-2.534968	e n k	-2.083287
-2.734296	e n l	-0.02773738
-4.561532	e n m	-1.024723
-2.983805	e n n	-1.719884
-1.456897	e n o	-1.936566
-3.262735	e n p	0.0348444
-1.903741	e n r	0.01123667
-0.685986	e n s	-2.627997
-0.8258579	e n t	-2.316059
-0.7754731	e n u	-2.891319
-2.554354	e n v	-1.837254
-2.761133	e n z	0.05509734
-0.05115252	f n i	-0.9503041
-1.87831	g n a	-1.984643
-0.9003242	g n e	-2.685175
-1.359948	g n i	-1.242886
-0.09102102	g n o	-3.624752
-2.539076	g n s	-0.4366289
-2.475407	g n u	0.200539
-0.008070855	h n i	-3.855835
-1.737456	h n o	-2.060834
-1.362615	i n </s>
-0.6515036	i n a	-3.536463
-4.676259	i n b	-1.216124
-1.683954	i n c	-2.913013
-1.639904	i n d	-1.246823
-1.73649	i n e	-3.472992
-2.545724	i n f	-1.292712
-1.556549	i n g	0.5449324
-3.055602	i n h	-0.6640589
-0.568881	i n i	-3.107167
-3.8273	i n j	-1.748669
-1.793378	i n k	-1.737411
-3.606221	i n n	-1.280951
-1.127202	i n o	-0.9935069
-4.880379	i n p	-0.9673288
-4.926136	i n r	-0.9932666
-1.660873	i n s	-3.068081
-0.8828392	i n t	-2.327631
-0.922417	i n u	-2.936212
-2.173575	i n v	-3.164418
-0.0001168558	j n i	-3.378095
-0.4755327	k n a	-3.690824
-3.510612	k n b	-0.9312429
-1.076642	k n e	-3.183633
-0.4584955	k n i	-2.398233
-0.9914405	k n o	-3.433879
-3.510612	k n r	-0.94632
-1.58698	k n s	-1.962968
-0.9781762	k n u	-1.346452
-0.577596	l n a	-3.60523
-2.702073	l n b	-1.598832
-2.462586	l n c	-1.263169
-3.757182	l n d	-1.028304
-2.78351	l n e	-2.170455
-1.678853	l n g	-3.090766
-0.4674878	l n i	-3.254844
-2.747081	l n k	-2.152983
-3.263355	l n m	-1.139159
-1.079199	l n o	-3.476456
-3.443563	l n p	-1.342096
-2.983309	l n r	-2.000678
-0.8999556	l n s	-3.039093
-0.9142788	l n u	-2.000262
-1.509064	l n v	-1.845406
-3.136372	l n z	-1.830421
-1.771426	m n a	-2.800993
-2.262059	m n e	-2.46613
-0.02069381	m n i	-4.36688
-3.044213	m n o	-1.675535
-4.456409	m n s	0.3349524
-1.634844	m n u	-1.959657
-0.2222541	n n a	-3.632577
-1.682523	n n e	-2.031908
-1.557584	n n i	-1.418305
-2.928652	n n k	-0.9294778
-1.054315	n n o	-2.631852
-2.229682	n n s	-0.7483826
-0.5906937	n n u	-2.058878
-1.010214	o n a	-2.935553
-1.539772	o n c	-2.666079
-1.280339	o n d	-2.076222
-1.739817	o n e	-3.448858
-1.720402	o n f	-3.034958
-2.167107	o n g	-2.427585
-3.940855	o n h	-1.307734
-0.6150526	o n i	-2.599323
-2.824282	o n j	-1.985307
-1.296312	o n k	-3.834192
-4.617548	o n l	0.4643065
-3.867426	o n m	-0.4515593
-2.158721	o n n	-1.734335
-0.8580124	o n o	-3.615347
-4.265366	o n p	-1.326101
-4.896829	o n r	-0.8188253
-1.1088	o n s	-2.254884
-0.9991469	o n t	-1.923285
-0.8199517	o n u	-2.929628
-2.180194	o n v	0.8254826
-3.475315	o n z	-1.694478
-1.244775	p n a	-2.896423
-1.791719	p n e	-2.327847
-0.152534	p n i	-2.653733
-1.692794	p n o	-1.944077
-1.217015	p n s	-2.247197
-0.8474087	p n u	-1.587225
-1.129661	r n a	-2.471875
-2.539918	r n b	-2.092622
-3.425517	r n d	-1.288365
-0.3035255	r n e	-4.050501
-2.90493	r n g	-1.642074
-3.382051	r n h	-1.100133
-0.6285048	r n i	-2.242541
-1.766252	r n o	-2.137623
-1.259134	r n s	-2.469019
-0.9353367	r n u	-2.183877
-3.590327	r n v	-1.110356
-1.235543	s n a	-2.621128
-1.253187	s n e	-3.670703
-4.057856	s n g	-0.963649
-0.1247853	s n i	-3.548522
-0.9686579	s n o	-2.96561
-1.958252	s n s	-2.189829
-1.784212	s n u	-1.142251
-3.131285	s n v	-1.750151
-1.183147	t n a	-3.640455
-0.7077745	t n e	-3.985227
-0.2004209	t n i	-3.414231
-3.786201	t n k	-1.093179
-1.849185	t n o	-1.768622
-1.441481	t n s	-2.559664
-1.239864	t n u	-1.667524
-0.0531052	u n </s>
-1.575607	u n a	-3.982984
-4.7759	u n b	-1.693004
-3.538001	u n c	-1.630639
-2.175397	u n d	-2.151328
-3.619553	u n e	-2.682153
-4.767467	u n f	-1.72164
-1.820089	u n g	-3.950947
-5.442077	u n h	-1.05874
-1.721565	u n i	-3.031092
-5.052106	u n j	-1.390665
-2.101867	u n k	-3.313897
-4.237957	u n l	-0.4627978
-6.163272	u n n	-0.5172509
-2.080349	u n o	-3.659724
-3.814153	u n p	-2.440838
-4.247941	u n r	-2.351478
-1.809749	u n s	-3.71015
-2.876873	u n t	-2.5291
-1.861681	u n u	-2.531463
-4.092535	u n v	-1.850226
-5.068497	u n z	-1.17162
-0.9017767	v n a	-2.294696
-0.05848074	v n i	-2.967469
-1.604602	z n a	-2.761939
-0.18333	z n e	-4.351411
-0.5917441	z n i	-2.768827
-1.289533	z n o	-2.625605
-3.057364	z n s	-0.7888114
-1.948768	z n u	-0.8590239
-1.579482	<s> o b	-3.546267
-1.711989	<s> o d	-1.589849
-2.535481	<s> o f	-1.873128
-2.147832	<s> o g	-2.311303
-2.399839	<s> o h	-1.96594
-1.766172	<s> o i	-3.37843
-0.8595517	<s> o k	-3.958403
-0.7315603	<s> o l	-3.648283
-2.03827	<s> o m	-2.553698
-2.26065	<s> o n	-2.807944
-1.313549	<s> o p	-3.245765
-1.307146	<s> o r	-2.484184
-1.22326	<s> o s	-3.971879
-0.3857126	<s> o t	-4.37902
-1.805937	<s> o z	-3.582861
-1.494441	a o </s>
-2.548799	a o b	-0.9939536
-1.275797	a o d	-1.505493
-1.233528	a o g	-2.357003
-1.994511	a o i	-1.582421
-1.582657	a o k	-1.702043
-2.72489	a o m	-0.9542089
-1.440459	a o n	-1.854907
-2.071677	a o r	-0.8583397
-0.1930919	a o s	-3.030324
-0.8955863	a o t	-2.607704
-2.62798	a o z	-1.040202
-1.052259	b o </s>
-3.481658	b o a	-1.512453
-2.503934	b o b	-2.4747
-3.731535	b o c	-1.278563
-1.618149	b o d	-2.765988
-3.588867	b o e	-1.403778
-3.986808	b o g	-1.125311
-2.066684	b o i	-2.530877
-0.5559749	b o j	-3.283468
-1.910167	b o k	-3.024097
-0.9112606	b o l	-2.843079
-2.677177	b o m	-2.137757
-1.84977	b o n	-2.673617
-3.32405	b o o	-1.215006
-4.083717	b o p	-0.9790043
-1.253691	b o r	-2.735763
-0.8057361	b o s	-2.795339
-0.6442862	b o t	-1.9036
-3.343355	b o u	-0.628279
-4.362998	b o v	-0.6087693
-2.267476	b o z	-1.043721
-0.7937645	c o </s>
-2.068923	c o d	-2.251976
-3.686971	c o e	-0.9430467
-1.994565	c o g	-2.222171
-3.51088	c o i	-0.9255018
-1.204813	c o j	-2.138567
-3.51088	c o k	-1.090717
-2.552635	c o l	-2.040566
-1.547092	c o m	-3.008108
-3.884838	c o n	-0.6795456
-3.51088	c o o	-0.6568514
-0.6783711	c o s	-3.235594
-0.2873624	c o t	-3.485101
-2.376756	d o </s>
-5.037152	d o a	-0.8023639
-2.392383	d o b	-1.356688
-3.547018	d o c	-1.534449
-0.8870724	d o d	-3.689241
-4.359931	d o e	-1.315111
-2.423418	d o f	-2.954736
-2.9861	d o g	-2.187242
-4.58178	d o h	-1.062003
-3.752476	d o i	-1.725372
-1.199433	d o j	-3.214933
-1.213168	d o k	-2.750335
-2.331767	d o l	-1.921044
-0.6269227	d o m	-4.183664
-1.818602	d o n	-2.906572
-3.88281	d o o	-1.328238
-2.99538	d o p	-2.437358
-2.336473	d o r	-2.756748
-0.661148	d o s	-3.425616
-0.6120303	d o t	-3.955041
-3.316569	d o v	-2.058808
-2.592034	d o w	0
-2.295286	d o z	-2.487863
-0.5857739	e o </s>
-1.999656	e o a	-1.84442
-1.453424	e o b	-0.6543162
-2.052329	e o c	-0.4013224
-1.318668	e o d	-2.079607
-2.324617	e o e	-2.16101
-2.66363	e o f	-1.616381
-1.48351	e o g	-2.520367
-3.154992	e o h	-0.6255043
-1.985709	e o i	-2.271614
-2.208867	e o j	-1.631198
-1.213646	e o k	-2.405644
-1.308861	e o l	-2.109345
-1.40758	e o m	-2.563384
-1.147102	e o n	-2.706671
-2.812569	e o o	-1.732699
-1.402175	e o p	-1.528639
-1.015427	e o r	-3.007456
-0.9719118	e o s	-1.436517
-1.233652	e o t	-2.649554
-2.734486	e o u	-1.299162
-1.455443	e o v	-2.29346
-1.675464	e o z	-0.9537573
-3.671743	f o </s>
-1.845669	f o b	-2.460446
-3.370713	f o d	-1.317986
-3.546805	f o g	-1.263948
-4.430727	f o i	-0.3410073
-2.422545	f o j	-1.08353
-2.379857	f o k	-1.989515
-2.117456	f o l	-2.129458
-3.428705	f o m	-1.308667
-0.3744025	f o n	-3.352005
-3.955666	f o o	-0.5177034
-4.127115	f o p	-0.7461623
-0.4761436	f o r	-2.86037
-0.9970354	f o s	-3.085985
-0.9568552	f o t	-2.890151
-3.520476	f o v	-1.037294
-3.078827	f o z	-0.2355769
-1.065031	g o </s>
-3.550309	g o a	-1.343424
-3.229384	g o b	-1.40051
-2.969099	g o c	-0.4226213
-0.7469582	g o d	-3.330054
-4.431649	g o f	-0.8265641
-1.415574	g o g	-3.155459
-1.821195	g o i	-3.069844
-0.7376877	g o j	-3.071049
-3.578337	g o k	-1.334281
-1.991001	g o l	-2.453869
-3.365263	g o m	-1.665214
-1.24989	g o n	-2.609256
-2.979912	g o o	-1.622089
-3.475675	g o p	-1.583717
-1.310775	g o r	-3.178101
-0.9544337	g o s	-2.999211
-0.6648944	g o t	-1.017619
-1.287932	g o v	-3.705092
-4.2602	g o z	-0.2962268
-1.377238	h o </s>
-1.550389	h o b	-2.907758
-3.921337	h o c	-0.2439259
-3.113782	h o d	-1.211707
-3.222927	h o e	-1.299388
-4.224948	h o i	-0.3410073
-2.469599	h o j	-0.8323004
-0.452145	h o k	-4.062887
-0.4372582	h o l	-2.857196
-1.990052	h o m	-2.055638
-2.567423	h o n	-2.053944
-4.224948	h o o	-0.07235682
-2.354815	h o p	-2.025686
-1.431203	h o r	-1.782532
-2.147206	h o s	-1.450559
-1.362732	h o t	-0.6303895
-2.212708	h o v	-1.890499
-1.020491	h o z	-1.569358
-0.9389805	i o </s>
-3.165902	i o a	-1.863657
-3.381018	i o b	-1.483528
-3.256079	i o c	-1.141454
-1.432129	i o d	-2.563251
-2.896535	i o e	-2.019184
-3.047803	i o f	-0.7164133
-3.152539	i o g	-1.765967
-3.290841	i o i	-1.497791
-2.606595	i o k	-2.192795
-1.882177	i o l	-1.876127
-2.108165	i o m	-2.252025
-0.9503145	i o n	-3.260839
-3.825954	i o o	-1.109782
-2.776183	i o p	-1.733034
-1.872402	i o r	-2.534976
-1.990717	i o s	-1.981044
-0.2016723	i o t	-4.282646
-3.858139	i o u	-1.105108
-3.671052	i o v	-0.9772072
-1.275289	i o z	-2.134013
-0.1777991	j o </s>
-3.848526	j o a	-1.844185
-2.740266	j o d	-2.132528
-2.86346	j o g	-2.45331
-4.553656	j o h	-1.173548
-4.222663	j o i	-1.30292
-2.149066	j o j	-2.303993
-1.694303	j o k	-3.347832
-2.78333	j o l	-2.273027
-1.786765	j o m	-3.41663
-0.9523877	j o n	-4.256907
-4.222663	j o o	-1.03427
-2.938608	j o r	-2.165664
-1.00383	j o s	-3.770005
-1.131242	j o t	-3.746196
-5.075974	j o v	-0.7272147
-2.859051	j o z	-2.093171
-0.22677	k o </s>
-4.314244	k o a	-1.554774
-3.573881	k o b	-2.0592
-5.251379	k o c	-0.414106
-1.821173	k o d	-2.613087
-3.075826	k o e	-2.719805
-3.178581	k o f	-2.41781
-4.433854	k o g	-1.028985
-2.120038	k o h	-2.218766
-3.716224	k o i	-2.267569
-1.755624	k o j	-3.068184
-1.866024	k o k	-3.096277
-1.416362	k o l	-2.899119
-1.279549	k o m	-3.155558
-1.014563	k o n	-2.91382
-3.597931	k o o	-1.559595
-1.520958	k o p	-0.2531376
-1.735668	k o r	-2.098674
-1.193914	k o s	-3.317317
-1.301055	k o t	-3.521374
-3.68491	k o v	-1.207675
-3.486731	k o z	-1.116662
-1.273944	l o </s>
-1.987134	l o b	-2.529545
-2.05463	l o c	-1.305433
-0.4133104	l o d	-4.28724
-3.859036	l o e	-1.655194
-3.722454	l o f	-1.523122
-1.089113	l o g	-3.591522
-3.708881	l o h	-1.50903
-3.325895	l o i	-2.052634
-1.459777	l o j	-2.8391
-1.356728	l o k	-2.809706
